{"learner":{"attributes":{"scikit_learn":"{\"_estimator_type\": \"regressor\"}"},"feature_names":[" Month"," Day"," Latitude"," Longitude","cluster","Season"],"feature_types":["int","int","float","float","int","float"],"gradient_booster":{"model":{"gbtree_model_param":{"num_parallel_tree":"1","num_trees":"100"},"iteration_indptr":[0,1,2,3,4,5,6,7,8,9,10,11,12,13,14,15,16,17,18,19,20,21,22,23,24,25,26,27,28,29,30,31,32,33,34,35,36,37,38,39,40,41,42,43,44,45,46,47,48,49,50,51,52,53,54,55,56,57,58,59,60,61,62,63,64,65,66,67,68,69,70,71,72,73,74,75,76,77,78,79,80,81,82,83,84,85,86,87,88,89,90,91,92,93,94,95,96,97,98,99,100],"tree_info":[0,0,0,0,0,0,0,0,0,0,0,0,0,0,0,0,0,0,0,0,0,0,0,0,0,0,0,0,0,0,0,0,0,0,0,0,0,0,0,0,0,0,0,0,0,0,0,0,0,0,0,0,0,0,0,0,0,0,0,0,0,0,0,0,0,0,0,0,0,0,0,0,0,0,0,0,0,0,0,0,0,0,0,0,0,0,0,0,0,0,0,0,0,0,0,0,0,0,0,0],"trees":[{"base_weights":[-2.5102274E-6,-1.4571626E0,6.799058E-1,-1.4386342E-1,-3.198544E0,1.514214E0,-9.1034055E-1,-1.6813196E0,8.936954E-1,-3.576217E0,-4.098831E-1,-1.0548098E0,2.3684042E0,4.741491E0,-1.1491635E0,-2.103394E0,-7.93269E-1,-2.3536755E-1,1.4481791E0,-4.2316093E0,-2.773925E0,2.2873054E0,-8.5898757E-1,7.9177755E-1,-2.1662545E0,1.4921229E0,4.5172467E0,1.5702696E0,6.234075E0,-1.9129599E0,-4.18523E-2,-3.5070294E-1,-2.2763367E0,-5.824686E0,-2.6274124E-1,-3.1282036E0,1.254755E-2,1.8768557E0,1.8745652E-1,-9.726098E-1,-4.503544E0,-8.0850565E-1,-3.19919E0,4.2792835E0,1.9043145E0,-5.897008E-1,-2.6047444E0,-6.84514E-1,1.5969626E0,-3.3181689E0,-1.5528313E0,2.8323817E0,3.9892894E-1,6.119008E0,3.0138738E0,2.1944394E0,6.4630497E-1,3.204624E0,8.647072E0,-1.1287376E0,-3.1803389E0,-4.853937E-1,8.9363354E-1,6.5046453E-1,-6.029795E-1,-1.4570574E0,-5.786337E-1,-1.9653115E0,-1.4719396E0,-3.4459552E-1,1.1728682E-1,-1.7511923E0,-1.6510917E-1,-1.6271082E-1,2.1631047E-1,5.9942347E-1,-1.096393E0,-2.2739981E-1,5.4910296E-1,-2.670184E-2,-4.804422E-1,-9.857141E-1,-1.4455074E0,-9.781323E-2,-1.3249807E0,-1.1216787E0,-4.0774688E-1,3.3683538E-1,1.6333303E0,9.180745E-1,4.172394E-1,-5.4475725E-1,-6.362669E-2,3.8873687E-1,-8.421586E-1,-7.106695E-1,6.9575646E-4,1.075025E-1,6.1044496E-1,-5.3622067E-1,-1.1708055E0,-6.80674E-1,-3.4401456E-1,7.257799E-1,1.042556E0,-4.088418E-2,7.062441E-1,1.371747E0,2.284092E0,3.8715932E-1,1.1433587E0,-6.2042E-2,5.209822E-1,1.3201915E0,1.7156543E-1,2.958806E0,8.9944786E-1,-1.3256449E-1,-7.6801217E-1,-6.6674024E-1,-1.1940757E0,3.166343E-2,-4.7270122E-1,-2.3990475E-1,3.975178E-1],"categories":[],"categories_nodes":[],"categories_segments":[],"categories_sizes":[],"default_left":[0,0,0,0,0,0,0,0,0,0,0,0,0,0,0,0,0,0,0,0,0,0,0,0,0,0,0,0,0,0,0,0,0,0,0,0,0,0,0,0,0,0,0,0,0,0,0,0,0,0,0,0,0,0,0,0,0,0,0,0,0,0,0,0,0,0,0,0,0,0,0,0,0,0,0,0,0,0,0,0,0,0,0,0,0,0,0,0,0,0,0,0,0,0,0,0,0,0,0,0,0,0,0,0,0,0,0,0,0,0,0,0,0,0,0,0,0,0,0,0,0,0,0,0,0],"id":0,"left_children":[1,3,5,7,9,11,13,15,17,19,21,23,25,27,29,31,33,35,37,39,41,43,45,47,49,51,53,55,57,59,61,63,65,67,69,71,73,75,77,79,81,83,85,87,89,91,93,95,97,99,101,103,105,107,109,-1,111,113,115,117,119,121,123,-1,-1,-1,-1,-1,-1,-1,-1,-1,-1,-1,-1,-1,-1,-1,-1,-1,-1,-1,-1,-1,-1,-1,-1,-1,-1,-1,-1,-1,-1,-1,-1,-1,-1,-1,-1,-1,-1,-1,-1,-1,-1,-1,-1,-1,-1,-1,-1,-1,-1,-1,-1,-1,-1,-1,-1,-1,-1,-1,-1,-1,-1],"loss_changes":[6.7883195E4,4.9852867E4,6.198608E4,1.9826664E4,9.869148E3,6.724656E4,2.170598E4,1.8754473E3,4.6462354E3,4.3283438E3,1.357431E3,1.5696264E4,4.32964E4,3.076331E3,1.3046617E4,1.0279736E3,4.3093994E3,1.7535388E3,2.6894297E3,4.0200156E3,3.101662E3,1.13916504E2,4.4976874E2,3.4173823E3,3.368209E3,2.3935238E4,1.6021547E4,1.1098977E3,3.2106445E3,9.069785E3,2.613642E3,1.283273E3,2.7610938E3,7.056787E1,8.471186E2,1.3446288E3,8.861616E2,2.4976924E3,1.9647294E3,1.9489642E2,1.5909531E3,1.1509485E3,3.0269688E3,8.583194E1,7.647223E1,3.8530325E2,1.0471478E2,1.17425E3,1.00801465E3,1.4765332E3,9.0386035E2,1.9404844E3,9.417336E3,7.417367E3,4.719092E3,0E0,1.6964638E2,6.2094446E2,1.6596855E3,5.5445293E3,2.6644766E3,2.7532026E3,1.4811338E3,0E0,0E0,0E0,0E0,0E0,0E0,0E0,0E0,0E0,0E0,0E0,0E0,0E0,0E0,0E0,0E0,0E0,0E0,0E0,0E0,0E0,0E0,0E0,0E0,0E0,0E0,0E0,0E0,0E0,0E0,0E0,0E0,0E0,0E0,0E0,0E0,0E0,0E0,0E0,0E0,0E0,0E0,0E0,0E0,0E0,0E0,0E0,0E0,0E0,0E0,0E0,0E0,0E0,0E0,0E0,0E0,0E0,0E0,0E0,0E0,0E0,0E0],"parents":[2147483647,0,0,1,1,2,2,3,3,4,4,5,5,6,6,7,7,8,8,9,9,10,10,11,11,12,12,13,13,14,14,15,15,16,16,17,17,18,18,19,19,20,20,21,21,22,22,23,23,24,24,25,25,26,26,27,27,28,28,29,29,30,30,31,31,32,32,33,33,34,34,35,35,36,36,37,37,38,38,39,39,40,40,41,41,42,42,43,43,44,44,45,45,46,46,47,47,48,48,49,49,50,50,51,51,52,52,53,53,54,54,56,56,57,57,58,58,59,59,60,60,61,61,62,62],"right_children":[2,4,6,8,10,12,14,16,18,20,22,24,26,28,30,32,34,36,38,40,42,44,46,48,50,52,54,56,58,60,62,64,66,68,70,72,74,76,78,80,82,84,86,88,90,92,94,96,98,100,102,104,106,108,110,-1,112,114,116,118,120,122,124,-1,-1,-1,-1,-1,-1,-1,-1,-1,-1,-1,-1,-1,-1,-1,-1,-1,-1,-1,-1,-1,-1,-1,-1,-1,-1,-1,-1,-1,-1,-1,-1,-1,-1,-1,-1,-1,-1,-1,-1,-1,-1,-1,-1,-1,-1,-1,-1,-1,-1,-1,-1,-1,-1,-1,-1,-1,-1,-1,-1,-1,-1],"split_conditions":[-1.5492E2,7E0,1.37E2,-1.98E0,5.07E0,-4.96E0,-7.96E0,-4.97E0,3E0,-1.6997E2,7.97E0,5E0,-1.1001E2,4E0,2.02E0,-1.7991E2,-1.7996E2,-1.7989E2,6E0,-7.99E0,-1.551E2,7.95E0,8.02E0,-1.2492E2,-1.2491E2,6E0,3E-2,-8.01E0,-7.98E0,8E0,1.65E2,3E0,-1.7979E2,-2E0,-1.7003E2,4E-2,-1.6996E2,8.02E0,2.08E0,1.4E1,8E0,5E0,8E0,1E1,9E0,-1.7987E2,-1.7003E2,2E0,2E0,-1.3991E2,5E0,-1.25E2,6.79E0,-1.0993E2,-1.0992E2,2.1944394E0,1.7E1,1E1,1.1E1,1.6497E2,0E0,8E0,3E0,6.5046453E-1,-6.029795E-1,-1.4570574E0,-5.786337E-1,-1.9653115E0,-1.4719396E0,-3.4459552E-1,1.1728682E-1,-1.7511923E0,-1.6510917E-1,-1.6271082E-1,2.1631047E-1,5.9942347E-1,-1.096393E0,-2.2739981E-1,5.4910296E-1,-2.670184E-2,-4.804422E-1,-9.857141E-1,-1.4455074E0,-9.781323E-2,-1.3249807E0,-1.1216787E0,-4.0774688E-1,3.3683538E-1,1.6333303E0,9.180745E-1,4.172394E-1,-5.4475725E-1,-6.362669E-2,3.8873687E-1,-8.421586E-1,-7.106695E-1,6.9575646E-4,1.075025E-1,6.1044496E-1,-5.3622067E-1,-1.1708055E0,-6.80674E-1,-3.4401456E-1,7.257799E-1,1.042556E0,-4.088418E-2,7.062441E-1,1.371747E0,2.284092E0,3.8715932E-1,1.1433587E0,-6.2042E-2,5.209822E-1,1.3201915E0,1.7156543E-1,2.958806E0,8.9944786E-1,-1.3256449E-1,-7.6801217E-1,-6.6674024E-1,-1.1940757E0,3.166343E-2,-4.7270122E-1,-2.3990475E-1,3.975178E-1],"split_indices":[3,0,3,2,2,2,2,2,0,3,2,0,3,0,2,3,3,3,0,2,3,2,2,3,3,0,2,2,2,0,3,0,3,2,3,2,3,2,2,1,0,2,4,0,0,3,3,0,0,3,4,3,2,3,3,0,1,0,0,3,2,0,0,0,0,0,0,0,0,0,0,0,0,0,0,0,0,0,0,0,0,0,0,0,0,0,0,0,0,0,0,0,0,0,0,0,0,0,0,0,0,0,0,0,0,0,0,0,0,0,0,0,0,0,0,0,0,0,0,0,0,0,0,0,0],"split_type":[0,0,0,0,0,0,0,0,0,0,0,0,0,0,0,0,0,0,0,0,0,0,0,0,0,0,0,0,0,0,0,0,0,0,0,0,0,0,0,0,0,0,0,0,0,0,0,0,0,0,0,0,0,0,0,0,0,0,0,0,0,0,0,0,0,0,0,0,0,0,0,0,0,0,0,0,0,0,0,0,0,0,0,0,0,0,0,0,0,0,0,0,0,0,0,0,0,0,0,0,0,0,0,0,0,0,0,0,0,0,0,0,0,0,0,0,0,0,0,0,0,0,0,0,0],"sum_hessian":[6.8516E4,2.1798E4,4.6718E4,1.2427E4,9.371E3,3.0642E4,1.6076E4,5.007E3,7.42E3,8.253E3,1.118E3,7.646E3,2.2996E4,6.51E2,1.5425E4,3.393E3,1.614E3,2.444E3,4.976E3,4.54E3,3.713E3,1.59E2,9.59E2,2.873E3,4.773E3,1.6336E4,6.66E3,2.09E2,4.42E2,9.128E3,6.297E3,3.05E2,3.088E3,1.53E2,1.461E3,1.92E2,2.252E3,3.713E3,1.263E3,3.5E2,4.19E3,6.61E2,3.052E3,2.4E1,1.35E2,8.32E2,1.27E2,1.014E3,1.859E3,1.657E3,3.116E3,7.338E3,8.998E3,3.223E3,3.437E3,2.8E1,1.81E2,1.97E2,2.45E2,5.64E3,3.488E3,4.272E3,2.025E3,1.21E2,1.84E2,3.65E2,2.723E3,8.2E1,7.1E1,6.2E2,8.41E2,9.3E1,9.9E1,1.263E3,9.89E2,3.634E3,7.9E1,8.02E2,4.61E2,1.46E2,2.04E2,8.63E2,3.327E3,5.84E2,7.7E1,2.359E3,6.93E2,7E0,1.7E1,4E1,9.5E1,1.95E2,6.37E2,6E0,1.21E2,2.93E2,7.21E2,4.86E2,1.373E3,4.59E2,1.198E3,1.126E3,1.99E3,4.47E3,2.868E3,7.065E3,1.933E3,1.586E3,1.637E3,1.088E3,2.349E3,1.02E2,7.9E1,1.35E2,6.2E1,2.01E2,4.4E1,3.812E3,1.828E3,1.589E3,1.899E3,2.771E3,1.501E3,4.11E2,1.614E3],"tree_param":{"num_deleted":"0","num_feature":"6","num_nodes":"125","size_leaf_vector":"1"}},{"base_weights":[-2.2714199E-5,6.223667E-1,-7.846371E-1,-5.855113E-1,9.9912035E-1,-2.229969E0,-7.572065E-2,-1.2339269E0,1.7095855E-1,1.4021866E0,-2.3895228E-1,-2.491278E0,-2.1881475E-1,1.5994966E0,-5.009237E-1,-2.138512E0,-1.0073498E0,4.4652224E-1,-1.7104939E0,-3.4608617E-1,1.7934592E0,-1.1602256E0,6.790461E-1,-2.9582424E0,-1.9619012E0,-7.3778737E-1,7.100727E-1,5.4598784E-1,5.690412E0,-8.643322E-1,2.0907304E0,4.356661E0,-2.3910918E0,-7.74134E-1,-2.0659652E0,2.2117952E-1,2.9327185E0,-5.225297E0,-2.927651E-1,-2.9271019E0,-7.3408484E-2,1.3123392E0,2.4430952E0,-2.895285E-1,-1.5006583E0,-5.0417762E-2,1.5734636E0,-6.8226916E-1,-3.141716E0,8.189847E-2,-2.2490692E0,6.9202986E-3,-1.3416214E0,5.3154427E-1,1.2547958E0,1.9971267E0,-9.1794187E-1,8.620843E0,4.824558E0,-1.4057846E0,1.6429325E0,3.98549E0,8.504189E-1,1.5559914E0,7.2762716E-1,-1.1651772E0,-5.9056747E-1,-4.155209E-1,-1.1599762E-1,-7.0170265E-1,-9.1991074E-2,3.2646552E-1,-2.0763917E-1,4.443888E-1,2.843032E0,-2.6921074E0,-9.8465186E-1,-8.46676E-1,6.404917E-1,-1.0146862E0,-1.7949794E-1,-2.2340964E-1,2.1836774E-1,2.4236868E-1,5.881187E-1,1.0952127E0,4.1838595E-1,3.068082E-2,-5.0639987E-1,-8.87275E-1,-2.8260875E-1,6.244886E-1,-1.3687405E-1,4.0034246E-1,8.025494E-1,1.583358E-2,-3.2222915E-1,-1.3603581E0,-8.660898E-1,5.0471103E-1,-1.1457614E-1,-4.9033916E-1,-7.906602E-1,1.2165032E-1,-5.872911E-1,-9.8396003E-1,-3.3818907E-1,4.524882E-1,-5.906614E-2,-5.3142065E-1,1.082023E0,-4.2352125E-1,2.3598199E-1,2.9686725E0,1.8169934E0,1.6688056E0,1.2766663E0,-4.683651E-1,3.6288943E-2,1.754069E0,4.4504634E-1,5.4556644E-1,1.6741306E0,-1.0950592E-3,1.0764643E0],"categories":[],"categories_nodes":[],"categories_segments":[],"categories_sizes":[],"default_left":[0,0,0,0,0,0,0,0,0,0,0,0,0,0,0,0,0,0,0,0,0,0,0,0,0,0,0,0,0,0,0,0,0,0,0,0,0,0,0,0,0,0,0,0,0,0,0,0,0,0,0,0,0,0,0,0,0,0,0,0,0,0,0,0,0,0,0,0,0,0,0,0,0,0,0,0,0,0,0,0,0,0,0,0,0,0,0,0,0,0,0,0,0,0,0,0,0,0,0,0,0,0,0,0,0,0,0,0,0,0,0,0,0,0,0,0,0,0,0,0,0,0,0,0,0],"id":1,"left_children":[1,3,5,7,9,11,13,15,17,19,21,23,25,27,29,31,33,35,37,39,41,43,45,47,49,51,53,55,57,59,61,63,65,67,69,71,73,75,77,79,81,83,85,87,89,91,93,95,97,99,101,103,105,107,-1,109,111,113,115,117,119,121,123,-1,-1,-1,-1,-1,-1,-1,-1,-1,-1,-1,-1,-1,-1,-1,-1,-1,-1,-1,-1,-1,-1,-1,-1,-1,-1,-1,-1,-1,-1,-1,-1,-1,-1,-1,-1,-1,-1,-1,-1,-1,-1,-1,-1,-1,-1,-1,-1,-1,-1,-1,-1,-1,-1,-1,-1,-1,-1,-1,-1,-1,-1],"loss_changes":[3.3459785E4,1.7388445E4,3.1055023E4,4.4564663E3,1.4534449E4,5.241121E3,1.4486286E4,1.0005005E3,2.1751848E3,1.5030594E4,6.051122E3,2.1762305E3,5.5393695E2,1.7740402E4,1.5278277E4,1.6165156E3,9.647119E2,2.0492927E3,2.6693784E3,2.8282986E3,5.6083633E3,1.0580591E3,2.3384429E3,1.9554766E3,2.4300068E3,3.314233E2,2.5319789E2,6.9591294E3,2.097375E3,1.9315025E4,4.685044E3,4.6726868E1,5.8717285E2,7.591068E2,3.384265E2,2.6582866E3,2.8734114E3,1.0922202E3,2.358003E3,4.0502588E2,1.9563666E3,3.371125E3,9.665789E3,5.508302E2,2.0864458E3,1.7098112E3,4.203335E2,1.01149E2,1.5261094E3,3.7997266E2,8.5790234E2,2.5997836E2,1.6537592E2,2.7991455E2,0E0,9.984771E3,1.3739207E3,5.643828E2,2.5058594E2,2.776666E3,1.6851748E3,2.716748E3,2.8223005E3,0E0,0E0,0E0,0E0,0E0,0E0,0E0,0E0,0E0,0E0,0E0,0E0,0E0,0E0,0E0,0E0,0E0,0E0,0E0,0E0,0E0,0E0,0E0,0E0,0E0,0E0,0E0,0E0,0E0,0E0,0E0,0E0,0E0,0E0,0E0,0E0,0E0,0E0,0E0,0E0,0E0,0E0,0E0,0E0,0E0,0E0,0E0,0E0,0E0,0E0,0E0,0E0,0E0,0E0,0E0,0E0,0E0,0E0,0E0,0E0,0E0,0E0],"parents":[2147483647,0,0,1,1,2,2,3,3,4,4,5,5,6,6,7,7,8,8,9,9,10,10,11,11,12,12,13,13,14,14,15,15,16,16,17,17,18,18,19,19,20,20,21,21,22,22,23,23,24,24,25,25,26,26,27,27,28,28,29,29,30,30,31,31,32,32,33,33,34,34,35,35,36,36,37,37,38,38,39,39,40,40,41,41,42,42,43,43,44,44,45,45,46,46,47,47,48,48,49,49,50,50,51,51,52,52,53,53,55,55,56,56,57,57,58,58,59,59,60,60,61,61,62,62],"right_children":[2,4,6,8,10,12,14,16,18,20,22,24,26,28,30,32,34,36,38,40,42,44,46,48,50,52,54,56,58,60,62,64,66,68,70,72,74,76,78,80,82,84,86,88,90,92,94,96,98,100,102,104,106,108,-1,110,112,114,116,118,120,122,124,-1,-1,-1,-1,-1,-1,-1,-1,-1,-1,-1,-1,-1,-1,-1,-1,-1,-1,-1,-1,-1,-1,-1,-1,-1,-1,-1,-1,-1,-1,-1,-1,-1,-1,-1,-1,-1,-1,-1,-1,-1,-1,-1,-1,-1,-1,-1,-1,-1,-1,-1,-1,-1,-1,-1,-1,-1,-1,-1,-1,-1,-1],"split_conditions":[7E0,-4.96E0,-1.4457E2,-1.2496E2,1.4698E2,5.02E0,2E0,2E0,1.6502E2,-1.7002E2,4E0,-1.6996E2,-1.7E2,-1.0992E2,1E1,-1.7993E2,6E0,1.5606E2,1.6518E2,-1.799E2,-1.25E2,1.5602E2,2.01E0,-7.99E0,-1.551E2,9E0,8.04E0,-1.98E0,-9.5E1,7.95E0,9E0,2.5E1,-1.7002E2,-5.03E0,-4.98E0,4E0,5E0,3E0,-4.99E0,5E0,5E-2,2.08E0,1.78E0,4.97E0,1.5616E2,-1.95E0,8.03E0,1.2E1,-1.7989E2,8E0,9E0,8.02E0,-1.7988E2,7.97E0,1.2547958E0,-1.3993E2,1.1E1,1E1,-9.497E1,9E0,7.98E0,-1.399E2,-1.0996E2,1.5559914E0,7.2762716E-1,-1.1651772E0,-5.9056747E-1,-4.155209E-1,-1.1599762E-1,-7.0170265E-1,-9.1991074E-2,3.2646552E-1,-2.0763917E-1,4.443888E-1,2.843032E0,-2.6921074E0,-9.8465186E-1,-8.46676E-1,6.404917E-1,-1.0146862E0,-1.7949794E-1,-2.2340964E-1,2.1836774E-1,2.4236868E-1,5.881187E-1,1.0952127E0,4.1838595E-1,3.068082E-2,-5.0639987E-1,-8.87275E-1,-2.8260875E-1,6.244886E-1,-1.3687405E-1,4.0034246E-1,8.025494E-1,1.583358E-2,-3.2222915E-1,-1.3603581E0,-8.660898E-1,5.0471103E-1,-1.1457614E-1,-4.9033916E-1,-7.906602E-1,1.2165032E-1,-5.872911E-1,-9.8396003E-1,-3.3818907E-1,4.524882E-1,-5.906614E-2,-5.3142065E-1,1.082023E0,-4.2352125E-1,2.3598199E-1,2.9686725E0,1.8169934E0,1.6688056E0,1.2766663E0,-4.683651E-1,3.6288943E-2,1.754069E0,4.4504634E-1,5.4556644E-1,1.6741306E0,-1.0950592E-3,1.0764643E0],"split_indices":[0,2,3,3,3,2,4,0,3,3,0,3,3,3,4,3,0,3,3,3,3,3,2,2,3,0,2,2,3,2,0,1,3,2,2,0,0,0,2,2,2,2,2,2,3,2,2,1,3,0,0,2,3,2,0,3,0,0,3,4,2,3,3,0,0,0,0,0,0,0,0,0,0,0,0,0,0,0,0,0,0,0,0,0,0,0,0,0,0,0,0,0,0,0,0,0,0,0,0,0,0,0,0,0,0,0,0,0,0,0,0,0,0,0,0,0,0,0,0,0,0,0,0,0,0],"split_type":[0,0,0,0,0,0,0,0,0,0,0,0,0,0,0,0,0,0,0,0,0,0,0,0,0,0,0,0,0,0,0,0,0,0,0,0,0,0,0,0,0,0,0,0,0,0,0,0,0,0,0,0,0,0,0,0,0,0,0,0,0,0,0,0,0,0,0,0,0,0,0,0,0,0,0,0,0,0,0,0,0,0,0,0,0,0,0,0,0,0,0,0,0,0,0,0,0,0,0,0,0,0,0,0,0,0,0,0,0,0,0,0,0,0,0,0,0,0,0,0,0,0,0,0,0],"sum_hessian":[6.8516E4,3.8208E4,3.0308E4,9.084E3,2.9124E4,9.973E3,2.0335E4,4.891E3,4.193E3,2.1971E4,7.153E3,8.826E3,1.147E3,4.116E3,1.6219E4,9.78E2,3.913E3,3.658E3,5.35E2,4.018E3,1.7953E4,3.57E3,3.583E3,4.687E3,4.139E3,7.36E2,4.11E2,3.274E3,8.42E2,1.4225E4,1.994E3,3.6E1,9.42E2,3.208E3,7.05E2,3.355E3,3.03E2,1.53E2,3.82E2,3.83E2,3.635E3,1.0316E4,7.637E3,1.004E3,2.566E3,1.974E3,1.609E3,3.5E2,4.337E3,5.1E2,3.629E3,3.3E2,4.06E2,3.92E2,1.9E1,1.644E3,1.63E3,1.9E2,6.52E2,1.1699E4,2.526E3,7.88E2,1.206E3,2.4E1,1.2E1,2.06E2,7.36E2,1.244E3,1.964E3,6.1E2,9.5E1,1.721E3,1.634E3,2.49E2,5.4E1,5.1E1,1.02E2,1.87E2,1.95E2,3.2E2,6.3E1,1.978E3,1.657E3,5.802E3,4.514E3,3.548E3,4.089E3,7.85E2,2.19E2,7.1E2,1.856E3,3.15E2,1.659E3,1.324E3,2.85E2,1.22E2,2.28E2,6.68E2,3.669E3,1.14E2,3.96E2,1.403E3,2.226E3,2.75E2,5.5E1,3.9E1,3.67E2,1.67E2,2.25E2,4.92E2,1.152E3,1.264E3,3.66E2,1.25E2,6.5E1,2.8E2,3.72E2,1.0618E4,1.081E3,9.1E1,2.435E3,3.35E2,4.53E2,9.2E2,2.86E2],"tree_param":{"num_deleted":"0","num_feature":"6","num_nodes":"125","size_leaf_vector":"1"}},{"base_weights":[1.2306105E-4,-7.327514E-1,3.4208095E-1,-1.9944961E-1,-1.7488627E0,7.685522E-1,-5.355304E-1,-9.232626E-1,2.787441E-1,-1.958048E0,-3.723014E-1,-4.5696062E-1,1.2204503E0,2.904756E0,-6.9030905E-1,-1.4571933E0,-6.869893E-1,-8.0681825E-1,4.780613E-1,-2.3159082E0,-1.501577E0,-6.801307E-1,5.3311926E-1,5.294114E-1,-1.0472088E0,2.4608173E0,8.171318E-1,7.179963E-1,3.9644296E0,-1.2143207E0,8.985103E-2,-9.9689955E-1,-3.287629E0,-2.879559E-1,-1.3908982E0,-1.4182084E0,6.17203E-1,8.81633E-1,-3.156217E-1,-6.168343E-1,-2.4585762E0,-1.7740637E0,-4.013468E-1,-2.2836258E0,-5.2233696E-1,1.3755478E0,-6.988944E-1,-3.3616978E-1,8.59285E-1,-1.8310469E0,-6.246105E-1,3.715464E-1,3.1884744E0,4.303612E-1,1.4877062E0,4.766959E0,8.960306E-2,1.6810759E0,5.3801403E0,-7.5939494E-1,-1.9534154E0,-2.542568E-1,5.1494515E-1,-9.543205E-2,-5.609719E-1,-1.6366036E0,-4.66977E-1,2.6518682E-1,-2.6086965E-1,-3.2747373E-1,-7.563699E-1,-1.0859342E0,-3.7812304E-1,2.6405415E-1,-6.24255E-1,3.451986E-1,-2.5419092E-1,1.8643726E-1,-3.0626494E-1,-5.2957643E-2,-4.2022583E-1,-1.0611082E0,-6.796943E-1,-7.233183E-2,-6.2686384E-1,-2.750217E-1,1.8068486E-1,4.8289165E-2,-7.5923026E-1,-1.08020864E-1,-6.2788004E-1,-6.2396932E-2,6.580231E-1,-1.5697062E-2,-6.596759E-1,-3.5585508E-1,4.4394433E-2,5.853706E-1,1.6631198E-1,-5.351815E-2,-6.3885134E-1,-5.9149647E-1,-1.409103E-1,-5.252534E-1,6.512009E-1,1.8711522E0,8.924059E-1,4.01346E-1,-7.305211E-2,4.332106E-1,2.8638587E0,1.452524E0,4.0093806E-1,-4.1024876E-1,1.9260253E-1,7.5872314E-1,-1.4456627E-1,1.8393569E0,5.46494E-1,-1.1398546E-1,-4.7028935E-1,-5.5783653E-1,-1.7863218E0,1.415673E-1,-2.114003E-1,4.36065E-1,4.08069E-2],"categories":[],"categories_nodes":[],"categories_segments":[],"categories_sizes":[],"default_left":[0,0,0,0,0,0,0,0,0,0,0,0,0,0,0,0,0,0,0,0,0,0,0,0,0,0,0,0,0,0,0,0,0,0,0,0,0,0,0,0,0,0,0,0,0,0,0,0,0,0,0,0,0,0,0,0,0,0,0,0,0,0,0,0,0,0,0,0,0,0,0,0,0,0,0,0,0,0,0,0,0,0,0,0,0,0,0,0,0,0,0,0,0,0,0,0,0,0,0,0,0,0,0,0,0,0,0,0,0,0,0,0,0,0,0,0,0,0,0,0,0,0,0,0,0,0,0],"id":2,"left_children":[1,3,5,7,9,11,13,15,17,19,21,23,25,27,29,31,33,35,37,39,41,43,45,47,49,51,53,55,57,59,61,63,65,67,69,71,73,75,77,79,81,83,85,87,89,91,93,95,97,99,101,103,105,107,109,111,113,115,117,119,121,123,125,-1,-1,-1,-1,-1,-1,-1,-1,-1,-1,-1,-1,-1,-1,-1,-1,-1,-1,-1,-1,-1,-1,-1,-1,-1,-1,-1,-1,-1,-1,-1,-1,-1,-1,-1,-1,-1,-1,-1,-1,-1,-1,-1,-1,-1,-1,-1,-1,-1,-1,-1,-1,-1,-1,-1,-1,-1,-1,-1,-1,-1,-1,-1,-1],"loss_changes":[1.7171447E4,1.1812399E4,1.7486213E4,4.948775E3,2.1598066E3,1.7412799E4,8.1378105E3,7.1656055E2,1.863342E3,1.0604395E3,2.765692E2,4.9324062E3,1.1489527E4,1.5219048E3,5.9777725E3,1.4661086E3,1.1076836E3,1.1640404E3,2.330519E3,8.830156E2,8.58209E2,1.8604312E2,2.62508E2,9.0599756E2,1.7544741E3,8.567074E3,4.4955986E3,5.4915045E2,1.4229834E3,2.9395488E3,8.596618E2,8.260691E2,1.3048484E3,1.7177067E3,4.800459E2,3.2026062E2,2.8706134E2,2.2443154E3,1.6217874E3,9.7779945E1,6.923301E2,1.1098901E3,2.9539194E2,4.028195E1,1.7127461E2,1.9472366E2,9.9781815E1,3.6068036E2,7.637008E2,9.1508594E2,7.17942E2,5.5672715E3,2.7058633E3,6.7244634E3,2.217751E3,9.694214E-1,1.5220087E2,3.1486612E2,7.1845215E2,1.660383E3,1.241541E3,1.062639E3,9.348274E2,0E0,0E0,0E0,0E0,0E0,0E0,0E0,0E0,0E0,0E0,0E0,0E0,0E0,0E0,0E0,0E0,0E0,0E0,0E0,0E0,0E0,0E0,0E0,0E0,0E0,0E0,0E0,0E0,0E0,0E0,0E0,0E0,0E0,0E0,0E0,0E0,0E0,0E0,0E0,0E0,0E0,0E0,0E0,0E0,0E0,0E0,0E0,0E0,0E0,0E0,0E0,0E0,0E0,0E0,0E0,0E0,0E0,0E0,0E0,0E0,0E0,0E0,0E0,0E0],"parents":[2147483647,0,0,1,1,2,2,3,3,4,4,5,5,6,6,7,7,8,8,9,9,10,10,11,11,12,12,13,13,14,14,15,15,16,16,17,17,18,18,19,19,20,20,21,21,22,22,23,23,24,24,25,25,26,26,27,27,28,28,29,29,30,30,31,31,32,32,33,33,34,34,35,35,36,36,37,37,38,38,39,39,40,40,41,41,42,42,43,43,44,44,45,45,46,46,47,47,48,48,49,49,50,50,51,51,52,52,53,53,54,54,55,55,56,56,57,57,58,58,59,59,60,60,61,61,62,62],"right_children":[2,4,6,8,10,12,14,16,18,20,22,24,26,28,30,32,34,36,38,40,42,44,46,48,50,52,54,56,58,60,62,64,66,68,70,72,74,76,78,80,82,84,86,88,90,92,94,96,98,100,102,104,106,108,110,112,114,116,118,120,122,124,126,-1,-1,-1,-1,-1,-1,-1,-1,-1,-1,-1,-1,-1,-1,-1,-1,-1,-1,-1,-1,-1,-1,-1,-1,-1,-1,-1,-1,-1,-1,-1,-1,-1,-1,-1,-1,-1,-1,-1,-1,-1,-1,-1,-1,-1,-1,-1,-1,-1,-1,-1,-1,-1,-1,-1,-1,-1,-1,-1,-1,-1,-1,-1,-1],"split_conditions":[-1.5492E2,8E0,1.4298E2,-1.98E0,5.01E0,-2.03E0,-5.03E0,-1.7004E2,2E0,-1.6996E2,-1.5501E2,5E0,-1E-2,4E0,2.01E0,-1.7984E2,-1.5498E2,4.99E0,6E0,-7.99E0,8E0,-1.7989E2,7.97E0,2E0,-1.2492E2,-1.251E2,-1.1015E2,-8.01E0,-8.01E0,8E0,5.04E0,-2.19E0,-1.7979E2,-5E0,-4.98E0,-1.7989E2,8.02E0,7.97E0,6E0,-8E0,-1.7989E2,-1.551E2,2E-2,4E0,8.03E0,1E1,-1.5498E2,-1.2492E2,-8.01E0,6E0,-8.03E0,-2E0,-1.2492E2,6E0,8.12E0,3.1E1,2E0,1E1,1.1E1,1.6497E2,1.6521E2,1.5605E2,5.07E0,-9.543205E-2,-5.609719E-1,-1.6366036E0,-4.66977E-1,2.6518682E-1,-2.6086965E-1,-3.2747373E-1,-7.563699E-1,-1.0859342E0,-3.7812304E-1,2.6405415E-1,-6.24255E-1,3.451986E-1,-2.5419092E-1,1.8643726E-1,-3.0626494E-1,-5.2957643E-2,-4.2022583E-1,-1.0611082E0,-6.796943E-1,-7.233183E-2,-6.2686384E-1,-2.750217E-1,1.8068486E-1,4.8289165E-2,-7.5923026E-1,-1.08020864E-1,-6.2788004E-1,-6.2396932E-2,6.580231E-1,-1.5697062E-2,-6.596759E-1,-3.5585508E-1,4.4394433E-2,5.853706E-1,1.6631198E-1,-5.351815E-2,-6.3885134E-1,-5.9149647E-1,-1.409103E-1,-5.252534E-1,6.512009E-1,1.8711522E0,8.924059E-1,4.01346E-1,-7.305211E-2,4.332106E-1,2.8638587E0,1.452524E0,4.0093806E-1,-4.1024876E-1,1.9260253E-1,7.5872314E-1,-1.4456627E-1,1.8393569E0,5.46494E-1,-1.1398546E-1,-4.7028935E-1,-5.5783653E-1,-1.7863218E0,1.415673E-1,-2.114003E-1,4.36065E-1,4.08069E-2],"split_indices":[3,0,3,2,2,2,2,3,0,3,3,0,2,0,2,3,3,2,0,2,4,3,2,0,3,3,3,2,2,0,2,2,3,2,2,3,2,2,4,2,3,3,2,1,2,0,3,3,2,0,2,2,3,0,2,1,0,0,0,3,3,3,2,0,0,0,0,0,0,0,0,0,0,0,0,0,0,0,0,0,0,0,0,0,0,0,0,0,0,0,0,0,0,0,0,0,0,0,0,0,0,0,0,0,0,0,0,0,0,0,0,0,0,0,0,0,0,0,0,0,0,0,0,0,0,0,0],"split_type":[0,0,0,0,0,0,0,0,0,0,0,0,0,0,0,0,0,0,0,0,0,0,0,0,0,0,0,0,0,0,0,0,0,0,0,0,0,0,0,0,0,0,0,0,0,0,0,0,0,0,0,0,0,0,0,0,0,0,0,0,0,0,0,0,0,0,0,0,0,0,0,0,0,0,0,0,0,0,0,0,0,0,0,0,0,0,0,0,0,0,0,0,0,0,0,0,0,0,0,0,0,0,0,0,0,0,0,0,0,0,0,0,0,0,0,0,0,0,0,0,0,0,0,0,0,0,0],"sum_hessian":[6.8516E4,2.1798E4,4.6718E4,1.4296E4,7.502E3,3.144E4,1.5278E4,5.687E3,8.609E3,6.512E3,9.9E2,8.47E3,2.297E4,6.57E2,1.4621E4,1.743E3,3.944E3,1.335E3,7.274E3,3.648E3,2.864E3,7.39E2,2.51E2,3.171E3,5.299E3,5.635E3,1.7335E4,2.15E2,4.42E2,8.746E3,5.875E3,1.394E3,3.49E2,2.518E3,1.426E3,9.34E2,4.01E2,4.822E3,2.452E3,2.83E2,3.365E3,2.295E3,5.69E2,6.5E1,6.74E2,1.49E2,1.02E2,8.75E2,2.296E3,1.855E3,3.444E3,1.456E3,4.179E3,1.0995E4,6.34E3,2.8E1,1.87E2,1.7E2,2.72E2,5.415E3,3.331E3,3.247E3,2.628E3,7.85E2,6.09E2,1.54E2,1.95E2,8.35E2,1.683E3,1.129E3,2.97E2,6.1E1,8.73E2,3.66E2,3.5E1,4.173E3,6.49E2,1.053E3,1.399E3,1.82E2,1.01E2,5.08E2,2.857E3,3.92E2,1.903E3,3.76E2,1.93E2,6E0,5.9E1,6.12E2,6.2E1,5.1E1,9.8E1,7.2E1,3E1,3.17E2,5.58E2,5E2,1.796E3,2.84E2,1.571E3,3.54E2,3.09E3,6.68E2,7.88E2,2.72E2,3.907E3,4.685E3,6.31E3,6.307E3,3.3E1,2.7E1,1E0,5.1E1,1.36E2,1.22E2,4.8E1,2.24E2,4.8E1,3.686E3,1.729E3,3.256E3,7.5E1,1.243E3,2.004E3,7.55E2,1.873E3],"tree_param":{"num_deleted":"0","num_feature":"6","num_nodes":"127","size_leaf_vector":"1"}},{"base_weights":[4.8417765E-5,2.7792984E-1,-4.9335268E-1,-3.5062498E-1,4.7135624E-1,-1.2508916E0,-1.3122107E-1,-7.081791E-1,6.419924E-2,-1.0375516E0,5.4529226E-1,-1.3794343E0,-2.4011672E-1,2.5466022E-1,-8.2955E-1,-6.3133365E-1,-1.9514968E0,4.7933343E-1,-3.411714E-1,-2.1498253E0,-1.6126166E-1,7.779571E-1,-7.675222E-2,-1.3432063E0,-4.030148E0,-1.3506958E0,-1.8566927E-2,-1.7404097E-1,1.9515674E0,2.7116086E0,-9.9719876E-1,-1.1309216E0,-3.686538E-1,-2.0228238E0,2.142189E0,-1.0184089E0,8.6227745E-1,4.7543064E-2,-8.54156E-1,-1.8710312E0,-2.6360793E0,7.0771575E-1,-1.1618943E0,4.9540982E-1,1.3652816E0,-6.6190046E-1,3.690567E-1,-1.6077235E0,-1.0415307E0,-4.360978E0,-1.1073567E0,-1.9042537E0,-8.425296E-1,1.1424832E-1,-1.4750235E0,1.8283154E0,-3.7143773E-1,-4.2013705E-1,2.9134243E0,1.1372713E0,4.26586E0,-1.2581402E0,-2.5906843E-1,-4.6114883E-1,2.2721365E-1,5.858608E-3,-3.4279758E-1,-4.6067384E-1,-8.2477117E-1,-8.785096E-2,1.0298734E0,-2.3651078E-2,-5.6805503E-1,6.560502E-1,9.3865305E-2,3.4672338E-1,-1.899851E-1,-4.6133524E-1,2.874135E-2,-7.8983885E-1,-3.1635106E-1,-6.0889214E-1,-9.424152E-1,6.0827922E-2,6.391854E-1,-1.0730498E0,-1.372091E-1,1.1860499E-1,6.535125E-1,6.370621E-1,1.8091148E-1,-2.218198E-2,-2.8067443E-1,2.2954842E-5,3.472957E-1,-1.3003531E-1,-5.11269E-1,-5.032506E-1,-2.514308E-1,-1.3880485E0,-8.775968E-1,-5.80454E-1,5.2326965E-1,-5.269278E-1,-1.4008622E0,2.7072552E-1,-3.1468388E-1,2.865363E-1,-3.6198344E-2,-2.0300196E-1,-6.831897E-1,-5.4381394E-1,5.9652936E-1,-3.5768652E-1,3.363273E-2,2.6552242E-1,-7.628285E-1,1.4457088E0,7.473503E-1,5.9190255E-1,4.524758E-2,2.5411456E0,9.699778E-1,-1.9738182E-1,-5.0896883E-1,-9.523397E-1,-1.5867319E-2],"categories":[],"categories_nodes":[],"categories_segments":[],"categories_sizes":[],"default_left":[0,0,0,0,0,0,0,0,0,0,0,0,0,0,0,0,0,0,0,0,0,0,0,0,0,0,0,0,0,0,0,0,0,0,0,0,0,0,0,0,0,0,0,0,0,0,0,0,0,0,0,0,0,0,0,0,0,0,0,0,0,0,0,0,0,0,0,0,0,0,0,0,0,0,0,0,0,0,0,0,0,0,0,0,0,0,0,0,0,0,0,0,0,0,0,0,0,0,0,0,0,0,0,0,0,0,0,0,0,0,0,0,0,0,0,0,0,0,0,0,0,0,0,0,0,0,0],"id":3,"left_children":[1,3,5,7,9,11,13,15,17,19,21,23,25,27,29,31,33,35,37,39,41,43,45,47,49,51,53,55,57,59,61,63,65,67,69,71,73,75,77,79,81,83,85,87,89,91,93,95,97,99,101,103,105,107,109,111,113,115,117,119,121,123,125,-1,-1,-1,-1,-1,-1,-1,-1,-1,-1,-1,-1,-1,-1,-1,-1,-1,-1,-1,-1,-1,-1,-1,-1,-1,-1,-1,-1,-1,-1,-1,-1,-1,-1,-1,-1,-1,-1,-1,-1,-1,-1,-1,-1,-1,-1,-1,-1,-1,-1,-1,-1,-1,-1,-1,-1,-1,-1,-1,-1,-1,-1,-1,-1],"loss_changes":[9.394298E3,5.3292197E3,6.7719165E3,1.529988E3,3.7399243E3,1.0370117E3,4.501203E3,5.280781E2,8.038842E2,1.5259933E3,4.624549E3,6.747666E2,2.2191074E2,7.827148E3,3.5320776E3,6.844812E2,9.8354004E1,1.3544595E3,4.8200137E2,8.860742E1,7.633977E2,3.85842E3,2.2695032E3,5.560371E2,8.703076E1,4.0590515E1,1.4582855E2,3.3959512E3,4.9515146E3,6.5336914E2,1.0931143E3,1.3804194E3,1.0281797E3,1.0797754E2,1.9862926E1,3.953418E2,1.3673955E3,1.0389146E3,6.7684265E2,2.7214868E2,6.9926636E1,3.372644E2,6.925345E2,2.6434807E3,4.3641836E3,6.052875E2,1.43684E3,4.2105566E2,4.213894E2,1.8906982E1,2.9331095E1,2.0822113E1,2.9761497E1,1.3660776E2,3.8810333E1,4.530869E2,3.104046E3,1.7393379E3,1.2303818E3,1.1099774E2,5.587422E2,1.1024995E3,8.9184796E2,0E0,0E0,0E0,0E0,0E0,0E0,0E0,0E0,0E0,0E0,0E0,0E0,0E0,0E0,0E0,0E0,0E0,0E0,0E0,0E0,0E0,0E0,0E0,0E0,0E0,0E0,0E0,0E0,0E0,0E0,0E0,0E0,0E0,0E0,0E0,0E0,0E0,0E0,0E0,0E0,0E0,0E0,0E0,0E0,0E0,0E0,0E0,0E0,0E0,0E0,0E0,0E0,0E0,0E0,0E0,0E0,0E0,0E0,0E0,0E0,0E0,0E0,0E0,0E0],"parents":[2147483647,0,0,1,1,2,2,3,3,4,4,5,5,6,6,7,7,8,8,9,9,10,10,11,11,12,12,13,13,14,14,15,15,16,16,17,17,18,18,19,19,20,20,21,21,22,22,23,23,24,24,25,25,26,26,27,27,28,28,29,29,30,30,31,31,32,32,33,33,34,34,35,35,36,36,37,37,38,38,39,39,40,40,41,41,42,42,43,43,44,44,45,45,46,46,47,47,48,48,49,49,50,50,51,51,52,52,53,53,54,54,55,55,56,56,57,57,58,58,59,59,60,60,61,61,62,62],"right_children":[2,4,6,8,10,12,14,16,18,20,22,24,26,28,30,32,34,36,38,40,42,44,46,48,50,52,54,56,58,60,62,64,66,68,70,72,74,76,78,80,82,84,86,88,90,92,94,96,98,100,102,104,106,108,110,112,114,116,118,120,122,124,126,-1,-1,-1,-1,-1,-1,-1,-1,-1,-1,-1,-1,-1,-1,-1,-1,-1,-1,-1,-1,-1,-1,-1,-1,-1,-1,-1,-1,-1,-1,-1,-1,-1,-1,-1,-1,-1,-1,-1,-1,-1,-1,-1,-1,-1,-1,-1,-1,-1,-1,-1,-1,-1,-1,-1,-1,-1,-1,-1,-1,-1,-1,-1,-1],"split_conditions":[8E0,-4.96E0,-1.4457E2,-1.2496E2,-1.7987E2,5.07E0,1.37E2,-1.2501E2,-5.01E0,2E-2,1.37E2,-1.5487E2,-1.7987E2,-9.609E1,-7.97E0,-1.6999E2,-4.99E0,-8.03E0,-9.498E1,5E0,5E0,-1.2496E2,4E0,-1.6996E2,5E0,-1.7988E2,8.03E0,-1.4003E2,-2.19E0,-7.98E0,4.98E0,-4.98E0,-4.99E0,-7.97E0,5E0,4E0,-8.01E0,4E0,1.6518E2,3E0,1.6E1,4E0,-1.799E2,8.07E0,1.97E0,1.5602E2,4.99E0,-7.99E0,-4.99E0,2.4E1,1.6E1,3.1E1,8E0,9E0,1.9E1,2E0,-1.25E2,-9.508E1,-9.509E1,1E1,9E0,1.5605E2,1.4298E2,-4.6114883E-1,2.2721365E-1,5.858608E-3,-3.4279758E-1,-4.6067384E-1,-8.2477117E-1,-8.785096E-2,1.0298734E0,-2.3651078E-2,-5.6805503E-1,6.560502E-1,9.3865305E-2,3.4672338E-1,-1.899851E-1,-4.6133524E-1,2.874135E-2,-7.8983885E-1,-3.1635106E-1,-6.0889214E-1,-9.424152E-1,6.0827922E-2,6.391854E-1,-1.0730498E0,-1.372091E-1,1.1860499E-1,6.535125E-1,6.370621E-1,1.8091148E-1,-2.218198E-2,-2.8067443E-1,2.2954842E-5,3.472957E-1,-1.3003531E-1,-5.11269E-1,-5.032506E-1,-2.514308E-1,-1.3880485E0,-8.775968E-1,-5.80454E-1,5.2326965E-1,-5.269278E-1,-1.4008622E0,2.7072552E-1,-3.1468388E-1,2.865363E-1,-3.6198344E-2,-2.0300196E-1,-6.831897E-1,-5.4381394E-1,5.9652936E-1,-3.5768652E-1,3.363273E-2,2.6552242E-1,-7.628285E-1,1.4457088E0,7.473503E-1,5.9190255E-1,4.524758E-2,2.5411456E0,9.699778E-1,-1.9738182E-1,-5.0896883E-1,-9.523397E-1,-1.5867319E-2],"split_indices":[0,2,3,3,3,2,3,3,2,2,3,3,3,3,2,3,2,2,3,0,0,3,0,3,2,3,2,3,2,2,2,2,2,2,0,0,2,0,3,0,1,0,3,2,2,3,2,2,2,1,1,1,2,0,1,4,3,3,3,0,0,3,3,0,0,0,0,0,0,0,0,0,0,0,0,0,0,0,0,0,0,0,0,0,0,0,0,0,0,0,0,0,0,0,0,0,0,0,0,0,0,0,0,0,0,0,0,0,0,0,0,0,0,0,0,0,0,0,0,0,0,0,0,0,0,0,0],"split_type":[0,0,0,0,0,0,0,0,0,0,0,0,0,0,0,0,0,0,0,0,0,0,0,0,0,0,0,0,0,0,0,0,0,0,0,0,0,0,0,0,0,0,0,0,0,0,0,0,0,0,0,0,0,0,0,0,0,0,0,0,0,0,0,0,0,0,0,0,0,0,0,0,0,0,0,0,0,0,0,0,0,0,0,0,0,0,0,0,0,0,0,0,0,0,0,0,0,0,0,0,0,0,0,0,0,0,0,0,0,0,0,0,0,0,0,0,0,0,0,0,0,0,0,0,0,0,0],"sum_hessian":[6.8516E4,4.3831E4,2.4685E4,1.0314E4,3.3517E4,7.983E3,1.6702E4,5.539E3,4.775E3,1.565E3,3.1952E4,7.082E3,9.01E2,1.0758E4,5.944E3,5.218E3,3.21E2,2.359E3,2.416E3,6.89E2,8.76E2,2.3254E4,8.698E3,6.988E3,9.4E1,1.49E2,7.52E2,8.589E3,2.169E3,2.68E2,5.676E3,1.797E3,3.421E3,3.16E2,5E0,4.8E2,1.879E3,1.375E3,1.041E3,4.41E2,2.48E2,4.69E2,4.07E2,1.5702E4,7.552E3,3.761E3,4.937E3,3.721E3,3.267E3,8.4E1,1E1,7E1,7.9E1,6.9E2,6.2E1,7.7E2,7.819E3,6.26E2,1.543E3,1.34E2,1.34E2,4.193E3,1.483E3,1.479E3,3.18E2,2.279E3,1.142E3,1.91E2,1.25E2,2E0,3E0,2.32E2,2.48E2,5.5E2,1.329E3,5.23E2,8.52E2,6.05E2,4.36E2,2.27E2,2.14E2,1.15E2,1.33E2,3.47E2,1.22E2,9.1E1,3.16E2,1.4822E4,8.8E2,3.785E3,3.767E3,1.195E3,2.566E3,3.364E3,1.573E3,2.83E2,3.438E3,7.9E2,2.477E3,6.9E1,1.5E1,8E0,2E0,6.8E1,2E0,8E0,7.1E1,1.5E2,5.4E2,3.2E1,3E1,3.2E1,7.38E2,2.898E3,4.921E3,3.88E2,2.38E2,2.78E2,1.265E3,7.2E1,6.2E1,2.5E1,1.09E2,1.771E3,2.422E3,9.7E1,1.386E3],"tree_param":{"num_deleted":"0","num_feature":"6","num_nodes":"127","size_leaf_vector":"1"}},{"base_weights":[-3.864766E-5,3.079478E-1,-2.7157152E-1,1.1209263E0,2.0798536E-1,-3.996264E-1,6.587918E-1,-1.9292085E-1,1.5081346E0,-2.416888E-1,3.2624978E-1,-7.776944E-1,-2.5621548E-2,3.2189608E-1,1.3280252E0,-3.7138336E0,3.2617345E-1,1.7220627E0,2.0897919E-1,-1.0261402E0,1.6227236E-1,-9.878717E-1,3.6471337E-1,-1.1659162E0,-5.5194175E-1,2.863143E-1,-7.491556E-1,-8.147874E-2,1.3733509E0,2.9935086E0,2.0486745E-1,-4.39595E0,-2.4850845E-1,-5.1863563E-1,8.5908043E-1,1.9172604E0,-1.1087189E0,3.9117484E0,-1.4022958E0,-1.1446612E0,5.291659E-1,5.676028E-1,-7.486E-1,-4.582561E-1,-1.9076782E0,2.7624533E-1,9.8215616E-1,-9.351973E-1,-1.5835549E0,-1.5337935E-1,-7.741707E-1,-5.5090415E-1,6.6692954E-1,-3.1460712E0,-4.233275E-1,4.2933053E-1,-9.131044E-1,1.1454028E0,2.4516184E0,2.4734254E0,4.4764056E0,8.44088E-1,-1.0170199E-1,-1.4743316E0,-6.492573E-1,2.4891268E-1,-1.268909E0,-3.3222598E-1,9.3620515E-1,4.3992543E-1,9.9647164E-2,3.6743757E-1,6.593233E-1,-6.330667E-1,1.0098324E0,6.6730267E-1,1.582313E0,-7.237148E-1,3.0759703E-2,1.8892778E-1,-3.7945724E-1,1.4383475E0,-5.9236523E-2,-1.1852844E-1,3.5752767E-1,-2.8173456E-1,8.391668E-1,3.2706165E-1,-3.06785E-1,-9.794897E-1,-4.3023828E-1,2.3427188E-1,5.3733557E-2,8.228665E-1,2.1771644E-1,-2.124312E-1,-4.9615094E-1,-5.206092E-1,-2.4988495E-1,-3.1182906E-1,8.280898E-2,-9.768673E-2,-3.9087373E-1,-7.854885E-2,-3.0682653E-1,4.665335E-1,-3.8968783E-2,-3.888269E-1,-1.6020645E0,6.290246E-1,-2.0145923E-1,3.11781E-2,9.156119E-1,1.9820213E-1,-3.6991996E-1,5.9097606E-1,1.9973238E-1,4.4899997E-1,8.9782554E-1,9.6104926E-1,2.259469E-1,1.1987238E0,1.812358E0,1.2811549E-1,1.6782724E0,2.1493228E-1,-3.9650244E-1],"categories":[],"categories_nodes":[],"categories_segments":[],"categories_sizes":[],"default_left":[0,0,0,0,0,0,0,0,0,0,0,0,0,0,0,0,0,0,0,0,0,0,0,0,0,0,0,0,0,0,0,0,0,0,0,0,0,0,0,0,0,0,0,0,0,0,0,0,0,0,0,0,0,0,0,0,0,0,0,0,0,0,0,0,0,0,0,0,0,0,0,0,0,0,0,0,0,0,0,0,0,0,0,0,0,0,0,0,0,0,0,0,0,0,0,0,0,0,0,0,0,0,0,0,0,0,0,0,0,0,0,0,0,0,0,0,0,0,0,0,0,0,0,0,0,0,0],"id":4,"left_children":[1,3,5,7,9,11,13,15,17,19,21,23,25,27,29,31,33,35,37,39,41,43,45,47,49,51,53,55,57,59,61,63,65,67,69,71,73,75,77,79,81,83,85,87,89,91,93,95,97,99,101,103,105,107,109,111,113,115,117,119,121,123,125,-1,-1,-1,-1,-1,-1,-1,-1,-1,-1,-1,-1,-1,-1,-1,-1,-1,-1,-1,-1,-1,-1,-1,-1,-1,-1,-1,-1,-1,-1,-1,-1,-1,-1,-1,-1,-1,-1,-1,-1,-1,-1,-1,-1,-1,-1,-1,-1,-1,-1,-1,-1,-1,-1,-1,-1,-1,-1,-1,-1,-1,-1,-1,-1],"loss_changes":[5.730054E3,2.6087732E3,4.338539E3,1.7884858E3,1.5205083E3,4.5260283E3,9.929574E2,1.4651876E3,7.542095E2,1.8869174E3,1.1445659E3,1.3944443E3,3.6321182E3,1.2436622E3,2.7585222E3,2.4237415E2,3.1513858E2,1.2901475E3,2.3024646E3,3.737024E2,1.4517672E3,3.1284637E2,1.2011282E3,5.624009E2,8.915364E2,3.5836777E3,3.7848708E3,9.009724E2,1.9701855E2,4.4703857E2,1.729274E2,8.887854E1,8.0775955E1,5.8414764E2,1.3680167E2,4.2091504E2,6.83818E2,2.57287E2,4.091292E2,4.0197388E2,4.4724228E2,1.6354476E3,8.206972E2,3.5940997E2,1.4636255E2,9.4294556E2,1.2423787E3,6.1441235E2,2.3568164E2,1.3719115E3,1.5323801E3,4.791786E2,5.4716333E3,2.347371E3,2.671629E3,1.1211014E3,4.0717883E2,2.6483423E2,6.8383484E1,5.527041E2,9.093677E1,5.641732E2,5.9681976E2,0E0,0E0,0E0,0E0,0E0,0E0,0E0,0E0,0E0,0E0,0E0,0E0,0E0,0E0,0E0,0E0,0E0,0E0,0E0,0E0,0E0,0E0,0E0,0E0,0E0,0E0,0E0,0E0,0E0,0E0,0E0,0E0,0E0,0E0,0E0,0E0,0E0,0E0,0E0,0E0,0E0,0E0,0E0,0E0,0E0,0E0,0E0,0E0,0E0,0E0,0E0,0E0,0E0,0E0,0E0,0E0,0E0,0E0,0E0,0E0,0E0,0E0,0E0,0E0],"parents":[2147483647,0,0,1,1,2,2,3,3,4,4,5,5,6,6,7,7,8,8,9,9,10,10,11,11,12,12,13,13,14,14,15,15,16,16,17,17,18,18,19,19,20,20,21,21,22,22,23,23,24,24,25,25,26,26,27,27,28,28,29,29,30,30,31,31,32,32,33,33,34,34,35,35,36,36,37,37,38,38,39,39,40,40,41,41,42,42,43,43,44,44,45,45,46,46,47,47,48,48,49,49,50,50,51,51,52,52,53,53,54,54,55,55,56,56,57,57,58,58,59,59,60,60,61,61,62,62],"right_children":[2,4,6,8,10,12,14,16,18,20,22,24,26,28,30,32,34,36,38,40,42,44,46,48,50,52,54,56,58,60,62,64,66,68,70,72,74,76,78,80,82,84,86,88,90,92,94,96,98,100,102,104,106,108,110,112,114,116,118,120,122,124,126,-1,-1,-1,-1,-1,-1,-1,-1,-1,-1,-1,-1,-1,-1,-1,-1,-1,-1,-1,-1,-1,-1,-1,-1,-1,-1,-1,-1,-1,-1,-1,-1,-1,-1,-1,-1,-1,-1,-1,-1,-1,-1,-1,-1,-1,-1,-1,-1,-1,-1,-1,-1,-1,-1,-1,-1,-1,-1,-1,-1,-1,-1,-1,-1],"split_conditions":[6E0,1E0,7.95E0,-1.6995E2,2E0,-1.2496E2,-1.1015E2,4.98E0,-1.0996E2,-1.549E2,-1.7989E2,-1.99E0,1.5605E2,8.96E0,1.37E2,5E0,3E0,5.14E0,2E0,7.98E0,1.5593E2,-1.799E2,1E1,1E1,6E0,-2.03E0,1.5616E2,8.02E0,1.1E1,-9.495E1,8E0,-1.6996E2,2.9E1,2.6E1,1.4E1,4.99E0,5E0,5.04E0,-9.495E1,-1.7991E2,-1.7979E2,-2E0,1.6518E2,-5.02E0,3E0,2E0,-3E-2,-1.3995E2,-2.02E0,-1.6995E2,1.78E0,1E1,3E-2,4E0,-7.96E0,-1.5497E2,7E0,-1.4026E2,1.1E1,8.06E0,8.07E0,8.07E0,8.04E0,-1.4743316E0,-6.492573E-1,2.4891268E-1,-1.268909E0,-3.3222598E-1,9.3620515E-1,4.3992543E-1,9.9647164E-2,3.6743757E-1,6.593233E-1,-6.330667E-1,1.0098324E0,6.6730267E-1,1.582313E0,-7.237148E-1,3.0759703E-2,1.8892778E-1,-3.7945724E-1,1.4383475E0,-5.9236523E-2,-1.1852844E-1,3.5752767E-1,-2.8173456E-1,8.391668E-1,3.2706165E-1,-3.06785E-1,-9.794897E-1,-4.3023828E-1,2.3427188E-1,5.3733557E-2,8.228665E-1,2.1771644E-1,-2.124312E-1,-4.9615094E-1,-5.206092E-1,-2.4988495E-1,-3.1182906E-1,8.280898E-2,-9.768673E-2,-3.9087373E-1,-7.854885E-2,-3.0682653E-1,4.665335E-1,-3.8968783E-2,-3.888269E-1,-1.6020645E0,6.290246E-1,-2.0145923E-1,3.11781E-2,9.156119E-1,1.9820213E-1,-3.6991996E-1,5.9097606E-1,1.9973238E-1,4.4899997E-1,8.9782554E-1,9.6104926E-1,2.259469E-1,1.1987238E0,1.812358E0,1.2811549E-1,1.6782724E0,2.1493228E-1,-3.9650244E-1],"split_indices":[0,4,2,3,0,3,3,2,3,3,3,2,3,2,3,0,0,2,0,2,3,3,4,0,4,2,3,2,0,3,0,3,1,1,1,2,0,2,3,3,3,2,3,2,0,4,2,3,2,3,2,0,2,4,2,3,0,3,1,2,2,2,2,0,0,0,0,0,0,0,0,0,0,0,0,0,0,0,0,0,0,0,0,0,0,0,0,0,0,0,0,0,0,0,0,0,0,0,0,0,0,0,0,0,0,0,0,0,0,0,0,0,0,0,0,0,0,0,0,0,0,0,0,0,0,0,0],"split_type":[0,0,0,0,0,0,0,0,0,0,0,0,0,0,0,0,0,0,0,0,0,0,0,0,0,0,0,0,0,0,0,0,0,0,0,0,0,0,0,0,0,0,0,0,0,0,0,0,0,0,0,0,0,0,0,0,0,0,0,0,0,0,0,0,0,0,0,0,0,0,0,0,0,0,0,0,0,0,0,0,0,0,0,0,0,0,0,0,0,0,0,0,0,0,0,0,0,0,0,0,0,0,0,0,0,0,0,0,0,0,0,0,0,0,0,0,0,0,0,0,0,0,0,0,0,0,0],"sum_hessian":[6.8516E4,3.2103E4,3.6413E4,3.514E3,2.8589E4,3.2008E4,4.405E3,8E2,2.714E3,5.953E3,2.2636E4,1.5917E4,1.6091E4,2.931E3,1.474E3,1.02E2,6.98E2,2.33E3,3.84E2,2.023E3,3.93E3,6.43E2,2.1993E4,5.851E3,1.0066E4,1.1244E4,4.847E3,2.119E3,8.12E2,5.93E2,8.81E2,8.5E1,1.7E1,2.7E2,4.28E2,2.18E3,1.5E2,1.16E2,2.68E2,1.88E3,1.43E2,2.72E3,1.21E3,4.09E2,2.34E2,1.9238E4,2.755E3,3.771E3,2.08E3,3.604E3,6.462E3,3.514E3,7.73E3,5.79E2,4.268E3,1.313E3,8.06E2,6.72E2,1.4E2,4.41E2,1.52E2,2.85E2,5.96E2,6.8E1,1.7E1,1.4E1,3E0,2.33E2,3.7E1,1.98E2,2.3E2,6.3E2,1.55E3,1.23E2,2.7E1,5.3E1,6.3E1,1.6E2,1.08E2,1.19E2,1.761E3,2E1,1.23E2,1.07E3,1.65E3,1.149E3,6.1E1,1.09E2,3E2,5.9E1,1.75E2,3.104E3,1.6134E4,3.49E2,2.406E3,2.867E3,9.04E2,1.729E3,3.51E2,1.176E3,2.428E3,3.497E3,2.965E3,2.18E3,1.334E3,3.655E3,4.075E3,3.15E2,2.64E2,3.82E2,3.886E3,1.169E3,1.44E2,1.36E2,6.7E2,2.46E2,4.26E2,5.2E1,8.8E1,3.09E2,1.32E2,1.19E2,3.3E1,2.63E2,2.2E1,3.57E2,2.39E2],"tree_param":{"num_deleted":"0","num_feature":"6","num_nodes":"127","size_leaf_vector":"1"}},{"base_weights":[8.8738634E-5,1.2495131E-1,-3.3491397E-1,-3.3900896E-1,1.9968496E-1,-5.09972E-1,2.8024846E-1,-6.294606E-1,2.0992486E-1,1.2740536E-1,8.590213E-1,-8.1726754E-1,-3.1108385E-1,-1.10113725E-1,1.0765995E0,-1.4322263E0,-4.8307228E-1,8.049088E-1,-5.4639935E-1,5.310168E-1,-1.3559508E-2,3.0655915E-1,1.7063208E0,-4.0238214E-1,-1.0110195E0,5.316421E-1,-5.0002044E-1,-4.9614495E-1,5.5774516E-1,1.8132448E-3,1.4031674E0,-2.0928782E-1,-2.101531E0,-8.576184E-1,6.7119785E-2,1.1011006E-1,1.7258984E0,-1.196627E0,-2.2510578E-1,4.0604103E-1,1.4955858E0,-5.5980723E-2,1.2539371E0,9.6890116E-1,-3.5963556E-1,3.5095813E0,1.4039624E0,-3.6976573E0,-3.5423923E-1,-9.269434E-1,-2.774216E0,1.0415697E0,-1.6376976E0,6.9318235E-1,-5.775947E-1,-1.1635329E0,-5.1804278E-2,2.4356678E0,-1.6904424E-1,-2.2780599E-1,1.9848335E0,1.950113E0,7.872389E-2,3.2455757E-1,-3.7898877E-1,-8.9724785E-1,-1.92487E-1,-2.0904966E-1,-8.547482E-1,2.543513E-1,-1.5833668E-1,-3.9390883E-1,1.4730003E-1,1.869851E0,3.543067E-1,-6.066479E-1,4.290361E-2,1.8795153E-1,-3.7966636E-1,1.3795891E-1,-1.6122831E0,1.5711539E0,2.9026094E-1,-9.870378E-3,-5.85867E-1,7.197354E-1,3.292169E-1,9.658855E-2,9.225587E-1,-4.9975863E-1,1.4134502E-1,6.6627425E-1,1.7374111E0,3.2888067E-1,6.7800415E-1,-1.39104E0,7.880482E-1,-1.4852913E-1,1.6301277E-1,-3.1290397E-1,-5.995898E-2,-4.1020995E-1,-1.221984E0,-7.0553385E-2,7.009239E-1,-4.9131317E-3,-1.0791484E0,1.3822702E-2,5.531273E-1,-2.0942584E-1,6.7600146E-2,-1.797434E-1,-6.518992E-1,-1.8058781E-1,1.2017147E-1,6.524414E-1,1.2846428E0,-1.9155422E-1,2.3702309E-1,4.056215E-1,-1.4737916E-1,3.9453948E-1,1.4337909E0,3.6835876E-1,1.0915614E0,-4.084296E-1,1.9240083E-1],"categories":[],"categories_nodes":[],"categories_segments":[],"categories_sizes":[],"default_left":[0,0,0,0,0,0,0,0,0,0,0,0,0,0,0,0,0,0,0,0,0,0,0,0,0,0,0,0,0,0,0,0,0,0,0,0,0,0,0,0,0,0,0,0,0,0,0,0,0,0,0,0,0,0,0,0,0,0,0,0,0,0,0,0,0,0,0,0,0,0,0,0,0,0,0,0,0,0,0,0,0,0,0,0,0,0,0,0,0,0,0,0,0,0,0,0,0,0,0,0,0,0,0,0,0,0,0,0,0,0,0,0,0,0,0,0,0,0,0,0,0,0,0,0,0,0,0],"id":5,"left_children":[1,3,5,7,9,11,13,15,17,19,21,23,25,27,29,31,33,35,37,39,41,43,45,47,49,51,53,55,57,59,61,63,65,67,69,71,73,75,77,79,81,83,85,87,89,91,93,95,97,99,101,103,105,107,109,111,113,115,117,119,121,123,125,-1,-1,-1,-1,-1,-1,-1,-1,-1,-1,-1,-1,-1,-1,-1,-1,-1,-1,-1,-1,-1,-1,-1,-1,-1,-1,-1,-1,-1,-1,-1,-1,-1,-1,-1,-1,-1,-1,-1,-1,-1,-1,-1,-1,-1,-1,-1,-1,-1,-1,-1,-1,-1,-1,-1,-1,-1,-1,-1,-1,-1,-1,-1,-1],"loss_changes":[2.86606E3,1.7307578E3,2.0035908E3,1.1042452E3,2.048647E3,8.849094E2,1.2815054E3,5.3153577E2,1.0790917E3,2.2043486E3,1.9875017E3,4.5698267E2,1.4004619E3,7.136491E2,4.759408E2,5.7088635E2,7.897267E2,8.585589E2,2.2034378E2,1.2083667E3,1.5440936E3,1.1352402E3,9.088794E2,2.8631198E2,5.7231323E2,1.7838042E3,6.653644E2,5.200842E2,1.384374E3,1.4479482E2,7.5322107E2,3.3886462E2,5.8360925E2,7.2809924E2,7.217474E2,4.1586243E2,1.4095911E3,3.862537E2,6.281215E2,2.7651138E3,2.267041E3,1.2164408E3,1.6409314E2,1.7568215E3,1.393089E3,6.928501E2,3.7603052E2,1.6660953E2,2.2633688E2,3.122954E2,3.1608582E2,2.15796E3,9.75255E2,3.267703E2,6.528059E2,3.9807867E2,2.625573E2,1.2700183E2,3.3010828E2,1.19290115E2,5.547281E1,8.930596E2,2.4799918E2,0E0,0E0,0E0,0E0,0E0,0E0,0E0,0E0,0E0,0E0,0E0,0E0,0E0,0E0,0E0,0E0,0E0,0E0,0E0,0E0,0E0,0E0,0E0,0E0,0E0,0E0,0E0,0E0,0E0,0E0,0E0,0E0,0E0,0E0,0E0,0E0,0E0,0E0,0E0,0E0,0E0,0E0,0E0,0E0,0E0,0E0,0E0,0E0,0E0,0E0,0E0,0E0,0E0,0E0,0E0,0E0,0E0,0E0,0E0,0E0,0E0,0E0,0E0,0E0],"parents":[2147483647,0,0,1,1,2,2,3,3,4,4,5,5,6,6,7,7,8,8,9,9,10,10,11,11,12,12,13,13,14,14,15,15,16,16,17,17,18,18,19,19,20,20,21,21,22,22,23,23,24,24,25,25,26,26,27,27,28,28,29,29,30,30,31,31,32,32,33,33,34,34,35,35,36,36,37,37,38,38,39,39,40,40,41,41,42,42,43,43,44,44,45,45,46,46,47,47,48,48,49,49,50,50,51,51,52,52,53,53,54,54,55,55,56,56,57,57,58,58,59,59,60,60,61,61,62,62],"right_children":[2,4,6,8,10,12,14,16,18,20,22,24,26,28,30,32,34,36,38,40,42,44,46,48,50,52,54,56,58,60,62,64,66,68,70,72,74,76,78,80,82,84,86,88,90,92,94,96,98,100,102,104,106,108,110,112,114,116,118,120,122,124,126,-1,-1,-1,-1,-1,-1,-1,-1,-1,-1,-1,-1,-1,-1,-1,-1,-1,-1,-1,-1,-1,-1,-1,-1,-1,-1,-1,-1,-1,-1,-1,-1,-1,-1,-1,-1,-1,-1,-1,-1,-1,-1,-1,-1,-1,-1,-1,-1,-1,-1,-1,-1,-1,-1,-1,-1,-1,-1,-1,-1,-1,-1,-1,-1],"split_conditions":[9E0,-1.7002E2,5E0,5E-2,1E1,-1.3996E2,1.1E1,2E0,-1.7983E2,2E0,-1.399E2,1E1,2E0,-9.501E1,-1.5495E2,-1.7988E2,-1.7979E2,-1.7987E2,4E0,-1.0992E2,8.96E0,-1.5494E2,-2.2E-1,-1.7996E2,-1.3998E2,-1.98E0,-8.01E0,6.79E0,1.37E2,2.8E1,1.37E2,-4.97E0,-1.94E0,-1.7984E2,5E0,-1.799E2,1.98E0,-1.7004E2,-1.7004E2,-1.0995E2,-9.508E1,1.6521E2,2E0,-1.5498E2,5E0,-1.1073E2,7E0,2.7E1,-1.4457E2,2.02E0,-2.01E0,-2E0,-1.251E2,-8.02E0,1E1,5.07E0,1E1,8.07E0,1.6501E2,-1.7985E2,-1.5499E2,-1.1015E2,1.561E2,3.2455757E-1,-3.7898877E-1,-8.9724785E-1,-1.92487E-1,-2.0904966E-1,-8.547482E-1,2.543513E-1,-1.5833668E-1,-3.9390883E-1,1.4730003E-1,1.869851E0,3.543067E-1,-6.066479E-1,4.290361E-2,1.8795153E-1,-3.7966636E-1,1.3795891E-1,-1.6122831E0,1.5711539E0,2.9026094E-1,-9.870378E-3,-5.85867E-1,7.197354E-1,3.292169E-1,9.658855E-2,9.225587E-1,-4.9975863E-1,1.4134502E-1,6.6627425E-1,1.7374111E0,3.2888067E-1,6.7800415E-1,-1.39104E0,7.880482E-1,-1.4852913E-1,1.6301277E-1,-3.1290397E-1,-5.995898E-2,-4.1020995E-1,-1.221984E0,-7.0553385E-2,7.009239E-1,-4.9131317E-3,-1.0791484E0,1.3822702E-2,5.531273E-1,-2.0942584E-1,6.7600146E-2,-1.797434E-1,-6.518992E-1,-1.8058781E-1,1.2017147E-1,6.524414E-1,1.2846428E0,-1.9155422E-1,2.3702309E-1,4.056215E-1,-1.4737916E-1,3.9453948E-1,1.4337909E0,3.6835876E-1,1.0915614E0,-4.084296E-1,1.9240083E-1],"split_indices":[0,3,2,2,4,3,0,0,3,4,3,0,4,3,3,3,3,3,0,3,2,3,2,3,3,2,2,2,3,1,3,2,2,3,4,3,2,3,3,3,3,3,0,3,0,3,0,1,3,2,2,2,3,2,4,2,0,2,3,3,3,3,3,0,0,0,0,0,0,0,0,0,0,0,0,0,0,0,0,0,0,0,0,0,0,0,0,0,0,0,0,0,0,0,0,0,0,0,0,0,0,0,0,0,0,0,0,0,0,0,0,0,0,0,0,0,0,0,0,0,0,0,0,0,0,0,0],"split_type":[0,0,0,0,0,0,0,0,0,0,0,0,0,0,0,0,0,0,0,0,0,0,0,0,0,0,0,0,0,0,0,0,0,0,0,0,0,0,0,0,0,0,0,0,0,0,0,0,0,0,0,0,0,0,0,0,0,0,0,0,0,0,0,0,0,0,0,0,0,0,0,0,0,0,0,0,0,0,0,0,0,0,0,0,0,0,0,0,0,0,0,0,0,0,0,0,0,0,0,0,0,0,0,0,0,0,0,0,0,0,0,0,0,0,0,0,0,0,0,0,0,0,0,0,0,0,0],"sum_hessian":[6.8516E4,4.9913E4,1.8603E4,6.924E3,4.2989E4,1.4482E4,4.121E3,4.528E3,2.396E3,3.8743E4,4.246E3,5.689E3,8.793E3,2.766E3,1.355E3,6.97E2,3.831E3,1.341E3,1.055E3,1.0028E4,2.8715E4,2.571E3,1.675E3,1.812E3,3.877E3,1.61E3,7.183E3,1.753E3,1.013E3,3.16E2,1.039E3,2.47E2,4.5E2,2.279E3,1.552E3,7.65E2,5.76E2,3.48E2,7.07E2,8.879E3,1.149E3,2.7786E4,9.29E2,1.289E3,1.282E3,2.39E2,1.436E3,2.5E1,1.787E3,3.702E3,1.75E2,1.304E3,3.06E2,4.38E2,6.745E3,7E2,1.053E3,2.82E2,7.31E2,2.84E2,3.2E1,7.35E2,3.04E2,1.11E2,1.36E2,2.79E2,1.71E2,2.11E3,1.69E2,6.71E2,8.81E2,1.61E2,6.04E2,6.1E1,5.15E2,2.15E2,1.33E2,3.89E2,3.18E2,8.798E3,8.1E1,1.41E2,1.008E3,2.7453E4,3.33E2,1.1E2,8.19E2,9.87E2,3.02E2,4.98E2,7.84E2,1.54E2,8.5E1,1.058E3,3.78E2,2.2E1,3E0,1.545E3,2.42E2,3.192E3,5.1E2,8.5E1,9E1,6.57E2,6.47E2,1.68E2,1.38E2,2.81E2,1.57E2,5.865E3,8.8E2,4.5E2,2.5E2,4.75E2,5.78E2,2.49E2,3.3E1,4.91E2,2.4E2,4E1,2.44E2,2.7E1,5E0,5.16E2,2.19E2,8.5E1,2.19E2],"tree_param":{"num_deleted":"0","num_feature":"6","num_nodes":"127","size_leaf_vector":"1"}},{"base_weights":[1.4783963E-4,1.882201E-1,-1.6566399E-1,6.485559E-1,1.316175E-1,-4.698312E-1,-1.4311601E-2,-2.3653522E-1,9.094433E-1,1.1065964E-1,1.5336398E0,-6.2532055E-1,-4.769896E-2,8.605659E-3,-3.2888188E0,-2.7668247E0,1.3664982E-1,3.0576441E0,8.071918E-1,1.5814582E-1,-5.8345276E-1,2.1831887E0,1.020137E0,-5.6067497E-1,-3.332693E0,8.850923E-1,-2.3499577E-1,-7.925434E-2,5.065332E-1,-3.5337844E0,2.0828362E0,-3.652968E0,-1.3377064E0,9.5647687E-1,-3.510757E-1,2.520948E0,4.710351E0,9.4706607E-1,-2.8980845E-1,-1.8367122E-1,2.4916139E-1,-1.686831E0,-8.023324E-2,6.122843E-1,2.7291093E0,1.8397874E0,-4.142006E-1,-5.366087E-1,-3.1946056E0,-1.4047365E0,-3.7056339E0,-6.256027E-2,1.9317765E0,-1.1403115E0,-1.6174175E-1,-1.834793E-1,5.168838E-1,1.0511111E0,-5.065151E-1,-3.0514615E0,-5.640594E0,1.0260773E0,1.0669861E0,-4.408553E-1,-1.2413721E0,-2.2261296E-1,-1.4066204E0,-6.5053326E-1,3.6323473E-1,-2.5232607E-1,1.265441E-1,1.0700861E0,1.05046965E-1,1.612033E0,1.358464E-1,3.2312953E-1,-2.7319774E-1,-1.0110668E0,3.063419E-1,-1.7360918E-1,5.2655686E-2,-2.4204089E-1,8.4110886E-2,-6.481134E-1,-3.973509E-2,-1.3424477E-1,3.3408052E-1,7.3126954E-1,-5.6241825E-2,6.4208174E-1,1.0045297E0,1.2938718E0,4.7266787E-1,-7.2656995E-1,4.0380278E-1,-2.3336253E-1,-8.5402295E-2,-2.5048295E-1,-1.1515588E0,-1.9408047E-1,-7.485689E-1,-1.2888368E0,-8.0765414E-1,-6.998166E-1,7.2469786E-2,1.1204154E0,3.84952E-1,-5.459638E-1,-2.5477186E-1,1.6509539E-1,-1.10738784E-1,8.4322795E-2,-1.0938042E-1,1.1742927E-1,3.682157E-1,7.16781E-1,2.5863606E-1,-2.0234732E-1,1.0786529E0,-1.0254161E0,-6.409668E-1,-2.7350447E0,-1.3012111E0,-4.9413875E-2,7.060768E-1],"categories":[],"categories_nodes":[],"categories_segments":[],"categories_sizes":[],"default_left":[0,0,0,0,0,0,0,0,0,0,0,0,0,0,0,0,0,0,0,0,0,0,0,0,0,0,0,0,0,0,0,0,0,0,0,0,0,0,0,0,0,0,0,0,0,0,0,0,0,0,0,0,0,0,0,0,0,0,0,0,0,0,0,0,0,0,0,0,0,0,0,0,0,0,0,0,0,0,0,0,0,0,0,0,0,0,0,0,0,0,0,0,0,0,0,0,0,0,0,0,0,0,0,0,0,0,0,0,0,0,0,0,0,0,0,0,0,0,0,0,0,0,0,0,0],"id":6,"left_children":[1,3,5,7,9,11,13,15,17,19,21,23,25,27,29,31,33,35,37,39,41,43,45,47,49,51,53,55,57,59,61,63,65,67,69,71,73,75,77,79,81,83,85,87,89,91,93,95,97,99,101,103,105,107,109,111,113,115,117,119,121,-1,123,-1,-1,-1,-1,-1,-1,-1,-1,-1,-1,-1,-1,-1,-1,-1,-1,-1,-1,-1,-1,-1,-1,-1,-1,-1,-1,-1,-1,-1,-1,-1,-1,-1,-1,-1,-1,-1,-1,-1,-1,-1,-1,-1,-1,-1,-1,-1,-1,-1,-1,-1,-1,-1,-1,-1,-1,-1,-1,-1,-1,-1,-1],"loss_changes":[2.136707E3,8.3642285E2,1.676364E3,8.1186084E2,8.399014E2,7.941133E2,1.8247673E3,7.567353E2,5.938999E2,9.2859644E2,1.3819531E2,1.545656E3,5.6940936E2,1.0564647E3,2.2974243E2,1.2555298E2,2.7983136E2,9.7226685E1,3.981499E2,8.2034094E2,1.0015202E3,1.5698303E2,2.793924E2,5.4577563E2,1.4291138E2,5.407025E2,1.7980263E2,1.2754883E3,1.998731E3,1.4740625E2,7.219593E0,6.062616E1,7.8360214E1,2.1003821E2,1.666148E2,2.144638E2,7.943768E1,5.565786E2,1.1906907E3,7.8687866E2,6.8644324E2,4.1559473E2,5.441577E2,7.198625E1,4.2794617E1,9.1878265E1,3.1071545E2,5.2008374E2,1.1531146E2,2.7308952E1,9.13645E1,1.987128E2,2.9808063E2,3.860855E1,3.711559E2,1.4703019E3,2.7182556E2,5.9377246E2,8.754408E2,3.764026E1,9.183557E1,0E0,9.895914E0,0E0,0E0,0E0,0E0,0E0,0E0,0E0,0E0,0E0,0E0,0E0,0E0,0E0,0E0,0E0,0E0,0E0,0E0,0E0,0E0,0E0,0E0,0E0,0E0,0E0,0E0,0E0,0E0,0E0,0E0,0E0,0E0,0E0,0E0,0E0,0E0,0E0,0E0,0E0,0E0,0E0,0E0,0E0,0E0,0E0,0E0,0E0,0E0,0E0,0E0,0E0,0E0,0E0,0E0,0E0,0E0,0E0,0E0,0E0,0E0,0E0,0E0],"parents":[2147483647,0,0,1,1,2,2,3,3,4,4,5,5,6,6,7,7,8,8,9,9,10,10,11,11,12,12,13,13,14,14,15,15,16,16,17,17,18,18,19,19,20,20,21,21,22,22,23,23,24,24,25,25,26,26,27,27,28,28,29,29,30,30,31,31,32,32,33,33,34,34,35,35,36,36,37,37,38,38,39,39,40,40,41,41,42,42,43,43,44,44,45,45,46,46,47,47,48,48,49,49,50,50,51,51,52,52,53,53,54,54,55,55,56,56,57,57,58,58,59,59,60,60,62,62],"right_children":[2,4,6,8,10,12,14,16,18,20,22,24,26,28,30,32,34,36,38,40,42,44,46,48,50,52,54,56,58,60,62,64,66,68,70,72,74,76,78,80,82,84,86,88,90,92,94,96,98,100,102,104,106,108,110,112,114,116,118,120,122,-1,124,-1,-1,-1,-1,-1,-1,-1,-1,-1,-1,-1,-1,-1,-1,-1,-1,-1,-1,-1,-1,-1,-1,-1,-1,-1,-1,-1,-1,-1,-1,-1,-1,-1,-1,-1,-1,-1,-1,-1,-1,-1,-1,-1,-1,-1,-1,-1,-1,-1,-1,-1,-1,-1,-1,-1,-1,-1,-1,-1,-1,-1,-1],"split_conditions":[6E0,1E0,-1.4457E2,-1.6995E2,8.98E0,2.08E0,1.6521E2,4.98E0,-1.5495E2,8.02E0,3E0,-1.5494E2,7E0,9E0,1.1E1,4E0,-1.6999E2,4.99E0,-1.0995E2,2E0,8.04E0,8E0,1.9E1,2.04E0,-1E-2,-1.6995E2,-1.7989E2,7.95E0,1E1,9E0,1.2E1,-1.6997E2,2.9E1,-1.7991E2,4E0,5E0,5E0,5.14E0,-9.495E1,-1.2507E2,-8.05E0,-1.2498E2,5E0,9E0,2E1,8.99E0,2.5E1,-1.7001E2,9E0,2.1E1,9E0,-1.799E2,-1.5503E2,5E0,-1.7002E2,2E0,1.1E1,-1.3998E2,1.6518E2,8E0,9E0,1.0260773E0,1.5E1,-4.408553E-1,-1.2413721E0,-2.2261296E-1,-1.4066204E0,-6.5053326E-1,3.6323473E-1,-2.5232607E-1,1.265441E-1,1.0700861E0,1.05046965E-1,1.612033E0,1.358464E-1,3.2312953E-1,-2.7319774E-1,-1.0110668E0,3.063419E-1,-1.7360918E-1,5.2655686E-2,-2.4204089E-1,8.4110886E-2,-6.481134E-1,-3.973509E-2,-1.3424477E-1,3.3408052E-1,7.3126954E-1,-5.6241825E-2,6.4208174E-1,1.0045297E0,1.2938718E0,4.7266787E-1,-7.2656995E-1,4.0380278E-1,-2.3336253E-1,-8.5402295E-2,-2.5048295E-1,-1.1515588E0,-1.9408047E-1,-7.485689E-1,-1.2888368E0,-8.0765414E-1,-6.998166E-1,7.2469786E-2,1.1204154E0,3.84952E-1,-5.459638E-1,-2.5477186E-1,1.6509539E-1,-1.10738784E-1,8.4322795E-2,-1.0938042E-1,1.1742927E-1,3.682157E-1,7.16781E-1,2.5863606E-1,-2.0234732E-1,1.0786529E0,-1.0254161E0,-6.409668E-1,-2.7350447E0,-1.3012111E0,-4.9413875E-2,7.060768E-1],"split_indices":[0,4,3,3,2,2,3,2,3,2,0,3,0,4,0,0,3,2,3,0,2,1,1,2,2,3,3,2,0,0,1,3,1,3,0,0,2,2,3,3,2,3,0,2,1,2,1,3,1,1,0,3,3,2,3,4,0,3,3,0,1,0,1,0,0,0,0,0,0,0,0,0,0,0,0,0,0,0,0,0,0,0,0,0,0,0,0,0,0,0,0,0,0,0,0,0,0,0,0,0,0,0,0,0,0,0,0,0,0,0,0,0,0,0,0,0,0,0,0,0,0,0,0,0,0],"split_type":[0,0,0,0,0,0,0,0,0,0,0,0,0,0,0,0,0,0,0,0,0,0,0,0,0,0,0,0,0,0,0,0,0,0,0,0,0,0,0,0,0,0,0,0,0,0,0,0,0,0,0,0,0,0,0,0,0,0,0,0,0,0,0,0,0,0,0,0,0,0,0,0,0,0,0,0,0,0,0,0,0,0,0,0,0,0,0,0,0,0,0,0,0,0,0,0,0,0,0,0,0,0,0,0,0,0,0,0,0,0,0,0,0,0,0,0,0,0,0,0,0,0,0,0,0],"sum_hessian":[6.8516E4,3.2103E4,3.6413E4,3.514E3,2.8589E4,1.2098E4,2.4315E4,8E2,2.714E3,2.8169E4,4.2E2,8.841E3,3.257E3,2.4147E4,1.68E2,1.02E2,6.98E2,1.22E2,2.592E3,2.6366E4,1.803E3,1.84E2,2.36E2,8.636E3,2.05E2,5.44E2,2.713E3,2.0526E4,3.621E3,1.61E2,7E0,6.2E1,4E1,2.6E2,4.38E2,9.4E1,2.8E1,2.299E3,2.93E2,5.544E3,2.0822E4,5.64E2,1.239E3,4.8E1,1.36E2,1.5E2,8.6E1,8.559E3,7.7E1,3.4E1,1.71E2,2.86E2,2.58E2,2.02E2,2.511E3,1.7472E4,3.054E3,2.355E3,1.266E3,1.33E2,2.8E1,2E0,5E0,1.2E1,5E1,3.5E1,5E0,1.9E1,2.41E2,2.68E2,1.7E2,6.3E1,3.1E1,2.4E1,4E0,2.149E3,1.5E2,8.7E1,2.06E2,2.64E3,2.904E3,5.97E2,2.0225E4,4.32E2,1.32E2,9.48E2,2.91E2,1.4E1,3.4E1,7.2E1,6.4E1,1.3E1,1.37E2,4E1,4.6E1,4.371E3,4.188E3,1.7E1,6E1,2.1E1,1.3E1,1.06E2,6.5E1,3.3E1,2.53E2,6.7E1,1.91E2,5.9E1,1.43E2,5.66E2,1.945E3,4.901E3,1.2571E4,2.597E3,4.57E2,2.9E2,2.065E3,1.217E3,4.9E1,9.3E1,4E1,6E0,2.2E1,3E0,2E0],"tree_param":{"num_deleted":"0","num_feature":"6","num_nodes":"125","size_leaf_vector":"1"}},{"base_weights":[3.2981483E-5,1.3179995E-1,-1.1613791E-1,2.2048768E-1,-1.2208352E-1,-2.8369203E-1,7.48881E-2,-1.013525E-1,3.8065448E-1,-4.7144726E-1,3.8378915E-1,-3.2175153E-1,5.8678275E-1,3.354524E-1,-2.0201397E-1,-2.3102398E-1,3.529985E-1,2.7911696E-1,1.0370342E0,-5.491549E-1,1.1980487E0,-7.4869406E-1,7.844513E-1,-5.269127E-1,-2.2879206E-1,4.7790527E-2,9.223472E-1,-5.378313E-2,1.1128772E0,1.458722E0,-2.828299E-1,5.2384853E0,-2.4256675E-1,7.6995033E-1,-2.1916893E-1,-4.3049634E-1,3.405641E-1,2.857825E0,6.216653E-1,-4.729746E-1,-2.8095639E0,2.4450529E0,2.0489861E-1,-2.3774388E0,-4.064146E-1,9.779414E-1,2.2254495E-2,-1.7802167E-1,-8.272335E-1,1.3413826E-2,-3.8266867E-1,1.5021464E0,-6.5217215E-1,2.4482727E0,6.2656975E-1,-7.373123E-1,9.7504474E-2,-8.612821E-1,1.3929245E0,7.764377E-2,2.5606265E0,-1.1150539E0,-1.426629E-1,1.987032E0,-1.707145E0,-5.321918E-2,-3.134989E-1,-3.281178E-2,3.7394154E-1,2.0632085E-1,-4.3030795E-1,-2.5539657E-1,1.7550121E-1,3.0924445E-1,7.996656E-2,-5.6306034E-2,9.929657E-1,5.2699834E-1,1.4400949E-1,-2.150079E-1,-3.7880673E-3,-1.3468966E0,-2.417825E-1,1.2292609E0,-1.7978263E-1,-1.9182958E-1,2.831345E-1,1.6339086E-1,-1.0653661E0,3.8368762E-1,-2.9640108E-1,9.439115E-1,2.7278703E-1,-5.8276534E-1,1.5583068E-1,4.500206E-1,-8.722742E-2,-4.2915747E-1,-1.3600571E-1,-3.203498E-1,9.191585E-2,-5.1453495E-1,-8.644348E-2,3.2493252E-1,6.4538455E-1,-4.972065E-1,-7.0538715E-2,2.2547089E-1,9.088778E-1,5.3044647E-1,2.26828E-2,-4.4061687E-2,-5.621245E-1,-1.9918588E-1,7.1225025E-2,3.224152E-1,-8.345988E-1,5.6302446E-1,1.6850138E-1,-4.2845148E-1,2.354526E-1,1.3858777E0,4.6258745E-1,-1.6513002E-1,-1.1595279E0,1.2347455E0,-7.967272E-2],"categories":[],"categories_nodes":[],"categories_segments":[],"categories_sizes":[],"default_left":[0,0,0,0,0,0,0,0,0,0,0,0,0,0,0,0,0,0,0,0,0,0,0,0,0,0,0,0,0,0,0,0,0,0,0,0,0,0,0,0,0,0,0,0,0,0,0,0,0,0,0,0,0,0,0,0,0,0,0,0,0,0,0,0,0,0,0,0,0,0,0,0,0,0,0,0,0,0,0,0,0,0,0,0,0,0,0,0,0,0,0,0,0,0,0,0,0,0,0,0,0,0,0,0,0,0,0,0,0,0,0,0,0,0,0,0,0,0,0,0,0,0,0,0,0,0,0],"id":7,"left_children":[1,3,5,7,9,11,13,15,17,19,21,23,25,27,29,31,33,35,37,39,41,43,45,47,49,51,53,55,57,59,61,63,65,67,69,71,73,75,77,79,81,83,85,87,89,91,93,95,97,99,101,103,105,107,109,111,113,115,117,119,121,123,125,-1,-1,-1,-1,-1,-1,-1,-1,-1,-1,-1,-1,-1,-1,-1,-1,-1,-1,-1,-1,-1,-1,-1,-1,-1,-1,-1,-1,-1,-1,-1,-1,-1,-1,-1,-1,-1,-1,-1,-1,-1,-1,-1,-1,-1,-1,-1,-1,-1,-1,-1,-1,-1,-1,-1,-1,-1,-1,-1,-1,-1,-1,-1,-1],"loss_changes":[1.0488383E3,7.228919E2,1.1655311E3,1.2265231E3,1.4691903E3,6.428749E2,1.2277858E3,4.6593326E2,1.0585337E3,6.38553E2,1.5414989E3,3.5436475E2,1.4700049E2,2.6529663E3,1.1076776E3,3.8966663E2,4.1909106E2,6.0013354E2,1.6076292E3,8.078325E2,2.707222E2,4.9408133E2,3.699994E2,6.070481E2,4.7679785E2,3.19612E2,2.2458444E2,6.042936E2,1.6183093E3,5.8265686E2,9.17646E2,2.3446014E2,3.208993E2,4.2585687E2,8.176149E2,4.6929926E2,6.4666187E2,5.444397E2,2.7790363E2,5.1014246E2,5.1142065E2,4.9043353E2,7.733844E1,5.3013513E2,7.2170654E2,2.9501904E2,4.982329E2,5.0782178E2,7.0174316E2,1.5750172E3,9.8479675E2,2.5415207E1,8.848167E1,7.761563E1,2.6466193E2,7.103109E2,5.0993823E2,1.356524E3,1.029331E3,1.8322049E2,4.3962366E2,1.7586667E3,3.5263394E3,0E0,0E0,0E0,0E0,0E0,0E0,0E0,0E0,0E0,0E0,0E0,0E0,0E0,0E0,0E0,0E0,0E0,0E0,0E0,0E0,0E0,0E0,0E0,0E0,0E0,0E0,0E0,0E0,0E0,0E0,0E0,0E0,0E0,0E0,0E0,0E0,0E0,0E0,0E0,0E0,0E0,0E0,0E0,0E0,0E0,0E0,0E0,0E0,0E0,0E0,0E0,0E0,0E0,0E0,0E0,0E0,0E0,0E0,0E0,0E0,0E0,0E0,0E0,0E0],"parents":[2147483647,0,0,1,1,2,2,3,3,4,4,5,5,6,6,7,7,8,8,9,9,10,10,11,11,12,12,13,13,14,14,15,15,16,16,17,17,18,18,19,19,20,20,21,21,22,22,23,23,24,24,25,25,26,26,27,27,28,28,29,29,30,30,31,31,32,32,33,33,34,34,35,35,36,36,37,37,38,38,39,39,40,40,41,41,42,42,43,43,44,44,45,45,46,46,47,47,48,48,49,49,50,50,51,51,52,52,53,53,54,54,55,55,56,56,57,57,58,58,59,59,60,60,61,61,62,62],"right_children":[2,4,6,8,10,12,14,16,18,20,22,24,26,28,30,32,34,36,38,40,42,44,46,48,50,52,54,56,58,60,62,64,66,68,70,72,74,76,78,80,82,84,86,88,90,92,94,96,98,100,102,104,106,108,110,112,114,116,118,120,122,124,126,-1,-1,-1,-1,-1,-1,-1,-1,-1,-1,-1,-1,-1,-1,-1,-1,-1,-1,-1,-1,-1,-1,-1,-1,-1,-1,-1,-1,-1,-1,-1,-1,-1,-1,-1,-1,-1,-1,-1,-1,-1,-1,-1,-1,-1,-1,-1,-1,-1,-1,-1,-1,-1,-1,-1,-1,-1,-1,-1,-1,-1,-1,-1,-1],"split_conditions":[6E0,-9.496E1,-1.249E2,-2.02E0,4E0,8.96E0,1.3703E2,-1.0999E2,-1.0999E2,1.6518E2,1.56E2,-2E0,1.3E1,-9.609E1,-7.96E0,-1.7996E2,4E0,-1.7987E2,2E0,1.6508E2,1.6521E2,-5E-2,1.6503E2,-5E0,1.78E0,5E0,-1.4028E2,7E0,-5.02E0,-8.01E0,-1.99E0,3E0,-2.09E0,2E0,1.8E1,8E-2,-1.98E0,-2E0,-1.0998E2,1.6469E2,-4.96E0,3E0,-4.99E0,-1.99E0,2E-2,-7.96E0,1.6504E2,-1.7991E2,-4.98E0,-1.7986E2,1.97E0,1E1,8.99E0,1.8E1,1.9E1,2E1,1E0,-8.01E0,1E1,-8.03E0,9E0,-2E0,-1.97E0,1.987032E0,-1.707145E0,-5.321918E-2,-3.134989E-1,-3.281178E-2,3.7394154E-1,2.0632085E-1,-4.3030795E-1,-2.5539657E-1,1.7550121E-1,3.0924445E-1,7.996656E-2,-5.6306034E-2,9.929657E-1,5.2699834E-1,1.4400949E-1,-2.150079E-1,-3.7880673E-3,-1.3468966E0,-2.417825E-1,1.2292609E0,-1.7978263E-1,-1.9182958E-1,2.831345E-1,1.6339086E-1,-1.0653661E0,3.8368762E-1,-2.9640108E-1,9.439115E-1,2.7278703E-1,-5.8276534E-1,1.5583068E-1,4.500206E-1,-8.722742E-2,-4.2915747E-1,-1.3600571E-1,-3.203498E-1,9.191585E-2,-5.1453495E-1,-8.644348E-2,3.2493252E-1,6.4538455E-1,-4.972065E-1,-7.0538715E-2,2.2547089E-1,9.088778E-1,5.3044647E-1,2.26828E-2,-4.4061687E-2,-5.621245E-1,-1.9918588E-1,7.1225025E-2,3.224152E-1,-8.345988E-1,5.6302446E-1,1.6850138E-1,-4.2845148E-1,2.354526E-1,1.3858777E0,4.6258745E-1,-1.6513002E-1,-1.1595279E0,1.2347455E0,-7.967272E-2],"split_indices":[0,3,3,2,0,2,3,3,3,3,3,2,1,3,2,3,0,3,0,3,3,2,3,2,2,1,3,0,2,2,2,0,2,0,1,2,2,2,3,3,2,0,2,2,2,2,3,3,2,3,2,0,2,1,1,1,4,2,0,2,0,2,2,0,0,0,0,0,0,0,0,0,0,0,0,0,0,0,0,0,0,0,0,0,0,0,0,0,0,0,0,0,0,0,0,0,0,0,0,0,0,0,0,0,0,0,0,0,0,0,0,0,0,0,0,0,0,0,0,0,0,0,0,0,0,0,0],"split_type":[0,0,0,0,0,0,0,0,0,0,0,0,0,0,0,0,0,0,0,0,0,0,0,0,0,0,0,0,0,0,0,0,0,0,0,0,0,0,0,0,0,0,0,0,0,0,0,0,0,0,0,0,0,0,0,0,0,0,0,0,0,0,0,0,0,0,0,0,0,0,0,0,0,0,0,0,0,0,0,0,0,0,0,0,0,0,0,0,0,0,0,0,0,0,0,0,0,0,0,0,0,0,0,0,0,0,0,0,0,0,0,0,0,0,0,0,0,0,0,0,0,0,0,0,0,0,0],"sum_hessian":[6.8516E4,3.2103E4,3.6413E4,2.3792E4,8.311E3,1.9398E4,1.7015E4,7.906E3,1.5886E4,4.916E3,3.395E3,1.8586E4,8.12E2,8.766E3,8.249E3,6.151E3,1.755E3,1.3759E4,2.127E3,4.698E3,2.18E2,8.87E2,2.508E3,5.794E3,1.2792E4,3.12E2,5E2,5.842E3,2.924E3,3.82E2,7.867E3,1.2E1,6.139E3,1.015E3,7.4E2,1.096E3,1.2663E4,3.94E2,1.733E3,4.546E3,1.52E2,9.6E1,1.22E2,1.53E2,7.34E2,2E3,5.08E2,2.681E3,3.113E3,4.97E3,7.822E3,1.01E2,2.11E2,8E1,4.2E2,1.058E3,4.784E3,3.63E2,2.561E3,1.7E2,2.12E2,1.133E3,6.734E3,1.1E1,1E0,5.679E3,4.6E2,3.57E2,6.58E2,4.24E2,3.16E2,7.75E2,3.21E2,1.225E3,1.1438E4,5.1E1,3.43E2,1.91E2,1.542E3,2.972E3,1.574E3,8.2E1,7E1,6.2E1,3.4E1,5.7E1,6.5E1,4.4E1,1.09E2,1.88E2,5.46E2,6E1,1.94E3,1.02E2,4.06E2,1.68E2,2.513E3,1.19E3,1.923E3,1.059E3,3.911E3,5.17E2,7.305E3,6.3E1,3.8E1,6.1E1,1.5E2,2.1E1,5.9E1,1.36E2,2.84E2,6.97E2,3.61E2,7.42E2,4.042E3,1.81E2,1.82E2,1.618E3,9.43E2,5.4E1,1.16E2,6.9E1,1.43E2,9.41E2,1.92E2,1.88E2,6.546E3],"tree_param":{"num_deleted":"0","num_feature":"6","num_nodes":"127","size_leaf_vector":"1"}},{"base_weights":[7.1552924E-5,-5.21718E-2,1.8583418E-1,1.48929665E-2,-3.530291E-1,1.3715826E-1,6.769434E-1,3.8438316E-2,-7.0128876E-1,-3.6948764E-1,2.3560596E0,2.6359144E-1,-1.5858513E-1,4.747295E-1,1.448848E0,-9.850356E-2,1.9699219E-1,-1.3524803E0,-2.1378946E-2,-3.4166443E-1,-5.328056E0,-1.7834636E0,2.858335E0,1.5290108E-2,4.7175217E-1,-4.7610557E-1,2.492384E-1,1.1134999E0,2.8105682E-1,1.8011444E0,4.0119404E-1,-6.922335E-2,-1.095686E0,-2.3019962E0,2.245354E-1,-2.021264E0,2.4189512E-1,1.3836038E0,-1.2819012E0,-5.65818E-1,-2.0533526E-1,-2.027578E0,-3.6472E0,-1.7020798E-1,-8.8525605E-1,3.5177078E0,2.093098E0,5.6443816E-1,-2.6698753E-1,5.667281E-1,2.9494958E-2,-2.562568E-1,-1.6910874E0,4.652386E-2,1.1978722E0,7.947226E-1,4.2251396E0,-4.457817E0,3.0950555E-1,1.8383847E-1,2.1573873E0,-2.054369E0,8.776787E-1,3.371141E-2,-6.571651E-2,-5.558297E-1,3.8513932E-1,-2.4196177E-3,-1.0042424E0,2.4744591E-1,3.559605E-2,6.648783E-1,-6.257389E-1,5.060062E-1,-5.272674E-1,-2.5502428E-1,6.4788854E-1,4.325089E-2,-6.0405546E-1,-1.796602E-1,6.096697E-1,-1.0813714E-1,4.384995E-2,-1.5372915E0,1.504386E-1,2.0127793E-1,-4.0404168E-1,1.5550364E0,7.6305825E-1,4.8107606E-1,9.787851E-1,9.445105E-2,4.3525764E-1,4.034517E-2,-2.4350119E-1,2.1088041E-1,3.6815647E-2,-1.04661815E-1,2.496445E-1,-2.2104123E-1,-1.20103E-2,-8.416166E-1,-1.7767182E-1,7.4803725E-2,-3.9706916E-1,7.770235E-1,1.7630784E-1,3.4229445E-1,-2.7376705E-1,1.5481123E0,8.8134307E-1,-2.1880074E0,-4.0901184E-2,-1.4102025E-1,1.4099675E-1,5.429789E-1,-5.441458E-1,5.8640313E-1,1.2034936E0,-1.5212305E-1,-1.0551445E0,4.857075E-1,5.987889E-2],"categories":[],"categories_nodes":[],"categories_segments":[],"categories_sizes":[],"default_left":[0,0,0,0,0,0,0,0,0,0,0,0,0,0,0,0,0,0,0,0,0,0,0,0,0,0,0,0,0,0,0,0,0,0,0,0,0,0,0,0,0,0,0,0,0,0,0,0,0,0,0,0,0,0,0,0,0,0,0,0,0,0,0,0,0,0,0,0,0,0,0,0,0,0,0,0,0,0,0,0,0,0,0,0,0,0,0,0,0,0,0,0,0,0,0,0,0,0,0,0,0,0,0,0,0,0,0,0,0,0,0,0,0,0,0,0,0,0,0,0,0,0,0],"id":8,"left_children":[1,3,5,7,9,11,13,15,17,19,21,23,25,27,29,31,33,35,37,39,41,43,45,47,49,51,53,55,57,59,61,63,65,67,69,71,73,75,77,79,81,-1,83,85,-1,87,89,91,93,95,97,99,101,103,105,107,109,111,113,115,117,119,121,-1,-1,-1,-1,-1,-1,-1,-1,-1,-1,-1,-1,-1,-1,-1,-1,-1,-1,-1,-1,-1,-1,-1,-1,-1,-1,-1,-1,-1,-1,-1,-1,-1,-1,-1,-1,-1,-1,-1,-1,-1,-1,-1,-1,-1,-1,-1,-1,-1,-1,-1,-1,-1,-1,-1,-1,-1,-1,-1,-1],"loss_changes":[6.649577E2,1.0790269E3,3.5944128E2,7.374517E2,4.3551074E2,5.1174832E2,2.1096997E2,9.193336E2,6.162812E2,1.3350435E3,1.2776941E2,4.955121E2,5.3090765E2,1.3280154E2,1.0299017E2,6.632668E2,1.3511035E3,7.5862305E2,1.2096038E3,2.943777E2,1.0519446E2,1.2680828E1,1.9379639E1,6.7801917E2,2.1903296E2,6.152604E2,3.4512613E2,2.4462222E2,1.1287172E2,1.2059564E2,8.604581E1,6.0057385E2,1.1697239E3,5.1319946E2,1.2335237E3,1.4162439E2,6.1249994E2,5.617222E2,3.7589185E2,3.141046E2,3.2687915E2,0E0,1.6802591E2,4.862314E0,0E0,3.062967E1,1.022541E1,3.2810202E2,6.3186035E2,2.595415E2,2.806036E2,2.0289719E2,4.3056854E2,4.1159796E2,2.6691837E2,1.358258E2,1.2530762E1,6.0274315E1,1.0318539E2,1.2996947E2,5.680945E1,2.5376698E1,3.0341171E1,0E0,0E0,0E0,0E0,0E0,0E0,0E0,0E0,0E0,0E0,0E0,0E0,0E0,0E0,0E0,0E0,0E0,0E0,0E0,0E0,0E0,0E0,0E0,0E0,0E0,0E0,0E0,0E0,0E0,0E0,0E0,0E0,0E0,0E0,0E0,0E0,0E0,0E0,0E0,0E0,0E0,0E0,0E0,0E0,0E0,0E0,0E0,0E0,0E0,0E0,0E0,0E0,0E0,0E0,0E0,0E0,0E0,0E0,0E0,0E0],"parents":[2147483647,0,0,1,1,2,2,3,3,4,4,5,5,6,6,7,7,8,8,9,9,10,10,11,11,12,12,13,13,14,14,15,15,16,16,17,17,18,18,19,19,20,20,21,21,22,22,23,23,24,24,25,25,26,26,27,27,28,28,29,29,30,30,31,31,32,32,33,33,34,34,35,35,36,36,37,37,38,38,39,39,40,40,42,42,43,43,45,45,46,46,47,47,48,48,49,49,50,50,51,51,52,52,53,53,54,54,55,55,56,56,57,57,58,58,59,59,60,60,61,61,62,62],"right_children":[2,4,6,8,10,12,14,16,18,20,22,24,26,28,30,32,34,36,38,40,42,44,46,48,50,52,54,56,58,60,62,64,66,68,70,72,74,76,78,80,82,-1,84,86,-1,88,90,92,94,96,98,100,102,104,106,108,110,112,114,116,118,120,122,-1,-1,-1,-1,-1,-1,-1,-1,-1,-1,-1,-1,-1,-1,-1,-1,-1,-1,-1,-1,-1,-1,-1,-1,-1,-1,-1,-1,-1,-1,-1,-1,-1,-1,-1,-1,-1,-1,-1,-1,-1,-1,-1,-1,-1,-1,-1,-1,-1,-1,-1,-1,-1,-1,-1,-1,-1,-1,-1,-1],"split_conditions":[5E0,1E1,1.1E1,1.6503E2,1.6518E2,8E0,2.5E1,-1.2496E2,1.6518E2,1.6507E2,3E0,4E0,-1.1014E2,5.04E0,1.37E2,-1.2501E2,1E0,1E-2,1.6521E2,-2E0,1.1E1,-4.98E0,1.6E1,2E0,2.6E1,-1.2496E2,4E0,5.03E0,-1.7988E2,-1.6999E2,1.5601E2,5E0,7E0,5E0,2E0,-4.99E0,2E0,-4.99E0,4E0,1.6498E2,2.2E1,-2.027578E0,2.3E1,1.1E1,-8.8525605E-1,1.1E1,2.7E1,2.5E1,8E0,7E0,-1.0996E2,5.11E0,1.6E1,8.04E0,1.1E1,1.5606E2,-1.0995E2,5E0,5.08E0,-1.7002E2,-9.497E1,7.95E0,1.65E2,3.371141E-2,-6.571651E-2,-5.558297E-1,3.8513932E-1,-2.4196177E-3,-1.0042424E0,2.4744591E-1,3.559605E-2,6.648783E-1,-6.257389E-1,5.060062E-1,-5.272674E-1,-2.5502428E-1,6.4788854E-1,4.325089E-2,-6.0405546E-1,-1.796602E-1,6.096697E-1,-1.0813714E-1,4.384995E-2,-1.5372915E0,1.504386E-1,2.0127793E-1,-4.0404168E-1,1.5550364E0,7.6305825E-1,4.8107606E-1,9.787851E-1,9.445105E-2,4.3525764E-1,4.034517E-2,-2.4350119E-1,2.1088041E-1,3.6815647E-2,-1.04661815E-1,2.496445E-1,-2.2104123E-1,-1.20103E-2,-8.416166E-1,-1.7767182E-1,7.4803725E-2,-3.9706916E-1,7.770235E-1,1.7630784E-1,3.4229445E-1,-2.7376705E-1,1.5481123E0,8.8134307E-1,-2.1880074E0,-4.0901184E-2,-1.4102025E-1,1.4099675E-1,5.429789E-1,-5.441458E-1,5.8640313E-1,1.2034936E0,-1.5212305E-1,-1.0551445E0,4.857075E-1,5.987889E-2],"split_indices":[2,0,0,3,3,0,1,3,3,3,1,0,3,2,3,3,4,2,3,2,0,2,1,0,1,3,4,2,3,3,3,0,4,0,4,2,2,2,0,3,1,0,1,0,0,0,1,1,2,0,3,2,1,2,1,3,3,1,2,3,3,2,3,0,0,0,0,0,0,0,0,0,0,0,0,0,0,0,0,0,0,0,0,0,0,0,0,0,0,0,0,0,0,0,0,0,0,0,0,0,0,0,0,0,0,0,0,0,0,0,0,0,0,0,0,0,0,0,0,0,0,0,0],"split_type":[0,0,0,0,0,0,0,0,0,0,0,0,0,0,0,0,0,0,0,0,0,0,0,0,0,0,0,0,0,0,0,0,0,0,0,0,0,0,0,0,0,0,0,0,0,0,0,0,0,0,0,0,0,0,0,0,0,0,0,0,0,0,0,0,0,0,0,0,0,0,0,0,0,0,0,0,0,0,0,0,0,0,0,0,0,0,0,0,0,0,0,0,0,0,0,0,0,0,0,0,0,0,0,0,0,0,0,0,0,0,0,0,0,0,0,0,0,0,0,0,0,0,0],"sum_hessian":[6.8516E4,5.3477E4,1.5039E4,4.373E4,9.747E3,1.3684E4,1.355E3,4.2339E4,1.391E3,9.689E3,5.8E1,9.586E3,4.098E3,1.075E3,2.8E2,2.2718E4,1.9621E4,7.1E2,6.81E2,9.636E3,5.3E1,6E0,5.2E1,4.372E3,5.214E3,2.304E3,1.794E3,2.49E2,8.26E2,2.09E2,7.1E1,2.2071E4,6.47E2,2.13E2,1.9408E4,5E2,2.1E2,3.22E2,3.59E2,3.643E3,5.993E3,2.7E1,2.6E1,3E0,3E0,2.6E1,2.6E1,1.484E3,2.888E3,4.292E3,9.22E2,1.952E3,3.52E2,1.479E3,3.15E2,2.27E2,2.2E1,4E0,8.22E2,3.8E1,1.71E2,1.1E1,6E1,9.978E3,1.2093E4,4.91E2,1.56E2,6.7E1,1.46E2,2.909E3,1.6499E4,7E0,4.93E2,1.22E2,8.8E1,8.3E1,2.39E2,1.22E2,2.37E2,3.598E3,4.5E1,4.158E3,1.835E3,1.9E1,7E0,2E0,1E0,8E0,1.8E1,2E1,6E0,1.159E3,3.25E2,1.663E3,1.225E3,3.284E3,1.008E3,6.27E2,2.95E2,6.05E2,1.347E3,1.74E2,1.78E2,1.289E3,1.9E2,9.5E1,2.2E2,1.89E2,3.8E1,1.1E1,1.1E1,2E0,2E0,1.4E2,6.82E2,2.1E1,1.7E1,1.56E2,1.5E1,6E0,5E0,2.8E1,3.2E1],"tree_param":{"num_deleted":"0","num_feature":"6","num_nodes":"123","size_leaf_vector":"1"}},{"base_weights":[5.0015977E-5,-5.1182187E-1,1.6290007E-2,4.1745725E-1,-7.936798E-1,9.794194E-1,2.2379598E-3,1.5382532E0,-9.035569E-1,-3.7765282E-1,-1.0083638E0,-1.3433752E0,1.2679332E0,-1.2452772E-1,4.7665637E-2,7.733432E-1,3.0507896E0,-2.6839283E0,-6.787408E-1,1.2807427E-1,-7.787096E-1,-1.4560093E0,-6.0280776E-1,-3.4031985E0,-5.2340025E-1,1.8334545E0,7.417657E-1,-6.944899E-2,-6.4586425E-1,1.1122355E-1,-2.4625818E-1,1.8485144E0,2.902161E-1,3.4979253E0,2.2246013E0,-1.2803463E0,-3.5342932E0,3.9772144E-1,-1.0741913E0,-1.7949785E0,6.057469E-1,2.8983297E0,-8.738512E-1,-2.9421225E0,-1.165851E0,-9.270234E-1,2.2273773E-1,-2.0505073E0,-5.2613597E0,-1.868869E0,1.1445585E0,2.881687E-1,1.9638549E0,1.1474358E0,-4.4949907E-1,-1.2296614E-1,3.5179868E-1,-3.5903615E-1,-1.2992097E0,7.453934E-2,7.0209855E-1,-1.6269876E0,-1.5285207E-3,4.1153225E-1,9.085112E-1,-1.6872026E0,1.1520685E-1,8.853812E-1,1.300302E0,4.790183E-1,1.3254888E0,-5.572788E-1,-1.4691164E-1,-1.2159638E0,-3.2263186E-2,6.872478E-2,1.425633E0,-4.721449E-1,-3.6462374E-2,-7.203239E-1,-1.5385276E-1,-2.6490172E-2,3.7989298E-1,1.0519989E0,-2.040001E-1,-1.1585095E-1,-4.5898983E-1,-1.115786E0,-2.7270177E-1,-9.452196E-1,-3.3312917E-1,2.361916E-2,-5.242154E-1,-5.9409994E-1,1.3473165E-1,-1.0821117E0,5.769451E-1,-1.6542999E0,-3.7179795E-1,-1.7842553E0,-3.894137E-1,-3.9283952E-1,6.1331767E-1,-1.3182891E-2,3.994532E-1,7.7219427E-1,4.5357582E-1,1.4734147E-1,6.8309456E-1,6.758748E-3,-5.64974E-1,-2.954452E-2,-3.6106455E-1,2.9722118E-1,-9.931459E-2,-1.885214E-1,1.3537766E-1,-4.3331012E-1,4.258265E-1,3.6373306E-2,-2.7005312E-1,-8.8959056E-1,3.043202E-1,-1.7749044E-1,-1.0734726E0,4.7146446E-1,-5.9457976E-2],"categories":[],"categories_nodes":[],"categories_segments":[],"categories_sizes":[],"default_left":[0,0,0,0,0,0,0,0,0,0,0,0,0,0,0,0,0,0,0,0,0,0,0,0,0,0,0,0,0,0,0,0,0,0,0,0,0,0,0,0,0,0,0,0,0,0,0,0,0,0,0,0,0,0,0,0,0,0,0,0,0,0,0,0,0,0,0,0,0,0,0,0,0,0,0,0,0,0,0,0,0,0,0,0,0,0,0,0,0,0,0,0,0,0,0,0,0,0,0,0,0,0,0,0,0,0,0,0,0,0,0,0,0,0,0,0,0,0,0,0,0,0,0,0,0,0,0],"id":9,"left_children":[1,3,5,7,9,11,13,15,17,19,21,23,25,27,29,31,33,35,37,39,41,43,45,47,49,51,53,55,57,59,61,63,65,67,69,71,73,75,77,79,81,83,85,87,89,91,93,95,97,99,101,103,105,107,109,111,113,115,117,119,121,123,125,-1,-1,-1,-1,-1,-1,-1,-1,-1,-1,-1,-1,-1,-1,-1,-1,-1,-1,-1,-1,-1,-1,-1,-1,-1,-1,-1,-1,-1,-1,-1,-1,-1,-1,-1,-1,-1,-1,-1,-1,-1,-1,-1,-1,-1,-1,-1,-1,-1,-1,-1,-1,-1,-1,-1,-1,-1,-1,-1,-1,-1,-1,-1,-1],"loss_changes":[5.695761E2,5.522065E2,8.9880023E2,7.283582E2,1.4404053E2,6.4170465E2,3.769512E2,3.053905E2,8.8636185E1,1.1205928E2,1.9264966E2,1.7725316E2,2.5156519E2,4.9582678E2,9.0025507E2,9.192463E1,2.5096802E1,2.5313797E1,8.641613E1,2.2614178E2,1.102832E2,2.1476135E2,1.5036086E2,6.4617065E1,1.7494138E2,8.1849976E1,2.1411691E2,3.5218015E2,3.0874E2,8.587855E2,2.8951716E3,2.678244E1,7.095424E1,1.2813049E1,3.9775543E1,4.110695E0,2.6237213E1,3.929892E1,7.025194E1,3.684674E1,9.042885E1,1.9799057E1,9.5721634E1,1.2618445E2,4.3252747E1,3.3264548E2,8.0183334E1,1.244542E2,5.37558E0,9.239194E1,7.9964516E1,1.1493208E1,1.0006152E2,2.4351672E2,7.651735E1,3.6658136E2,7.686478E2,2.5085512E2,2.0054865E2,1.6984779E3,2.6556072E3,2.6039883E3,2.252206E3,0E0,0E0,0E0,0E0,0E0,0E0,0E0,0E0,0E0,0E0,0E0,0E0,0E0,0E0,0E0,0E0,0E0,0E0,0E0,0E0,0E0,0E0,0E0,0E0,0E0,0E0,0E0,0E0,0E0,0E0,0E0,0E0,0E0,0E0,0E0,0E0,0E0,0E0,0E0,0E0,0E0,0E0,0E0,0E0,0E0,0E0,0E0,0E0,0E0,0E0,0E0,0E0,0E0,0E0,0E0,0E0,0E0,0E0,0E0,0E0,0E0,0E0,0E0,0E0],"parents":[2147483647,0,0,1,1,2,2,3,3,4,4,5,5,6,6,7,7,8,8,9,9,10,10,11,11,12,12,13,13,14,14,15,15,16,16,17,17,18,18,19,19,20,20,21,21,22,22,23,23,24,24,25,25,26,26,27,27,28,28,29,29,30,30,31,31,32,32,33,33,34,34,35,35,36,36,37,37,38,38,39,39,40,40,41,41,42,42,43,43,44,44,45,45,46,46,47,47,48,48,49,49,50,50,51,51,52,52,53,53,54,54,55,55,56,56,57,57,58,58,59,59,60,60,61,61,62,62],"right_children":[2,4,6,8,10,12,14,16,18,20,22,24,26,28,30,32,34,36,38,40,42,44,46,48,50,52,54,56,58,60,62,64,66,68,70,72,74,76,78,80,82,84,86,88,90,92,94,96,98,100,102,104,106,108,110,112,114,116,118,120,122,124,126,-1,-1,-1,-1,-1,-1,-1,-1,-1,-1,-1,-1,-1,-1,-1,-1,-1,-1,-1,-1,-1,-1,-1,-1,-1,-1,-1,-1,-1,-1,-1,-1,-1,-1,-1,-1,-1,-1,-1,-1,-1,-1,-1,-1,-1,-1,-1,-1,-1,-1,-1,-1,-1,-1,-1,-1,-1,-1,-1,-1,-1,-1,-1,-1],"split_conditions":[-8.03E0,-1.5497E2,-8.01E0,-8.27E0,-1.5495E2,-1.0995E2,-2E0,8E0,2E0,5E0,-8.05E0,2E0,-9.509E1,1.1E1,1.5605E2,-8.28E0,2E1,1.5E1,5E0,-8.28E0,-8.29E0,3E0,9E0,2.1E1,1.6E1,2E0,1E1,1.5602E2,-1.1E2,1.56E2,1.5616E2,-1.5498E2,-1.5506E2,1.2E1,2.9E1,9E0,-1.5499E2,-8.05E0,2.2E1,2.2E1,1.6E1,1E1,1.8E1,2E1,-8.29E0,4E0,4E0,1.3E1,3E1,-1.7993E2,3E0,-9.51E1,5E0,7E0,1.6482E2,1.5593E2,1.6499E2,-1.2498E2,1.6518E2,1.4698E2,-1.99E0,4E0,1.6393E2,4.1153225E-1,9.085112E-1,-1.6872026E0,1.1520685E-1,8.853812E-1,1.300302E0,4.790183E-1,1.3254888E0,-5.572788E-1,-1.4691164E-1,-1.2159638E0,-3.2263186E-2,6.872478E-2,1.425633E0,-4.721449E-1,-3.6462374E-2,-7.203239E-1,-1.5385276E-1,-2.6490172E-2,3.7989298E-1,1.0519989E0,-2.040001E-1,-1.1585095E-1,-4.5898983E-1,-1.115786E0,-2.7270177E-1,-9.452196E-1,-3.3312917E-1,2.361916E-2,-5.242154E-1,-5.9409994E-1,1.3473165E-1,-1.0821117E0,5.769451E-1,-1.6542999E0,-3.7179795E-1,-1.7842553E0,-3.894137E-1,-3.9283952E-1,6.1331767E-1,-1.3182891E-2,3.994532E-1,7.7219427E-1,4.5357582E-1,1.4734147E-1,6.8309456E-1,6.758748E-3,-5.64974E-1,-2.954452E-2,-3.6106455E-1,2.9722118E-1,-9.931459E-2,-1.885214E-1,1.3537766E-1,-4.3331012E-1,4.258265E-1,3.6373306E-2,-2.7005312E-1,-8.8959056E-1,3.043202E-1,-1.7749044E-1,-1.0734726E0,4.7146446E-1,-5.9457976E-2],"split_indices":[2,3,2,2,3,3,2,0,0,0,2,0,3,0,3,2,1,1,0,2,2,0,0,1,1,0,0,3,3,3,3,3,3,1,1,1,3,2,1,1,1,0,1,1,2,0,1,1,1,3,0,3,0,0,3,3,3,3,3,3,2,4,3,0,0,0,0,0,0,0,0,0,0,0,0,0,0,0,0,0,0,0,0,0,0,0,0,0,0,0,0,0,0,0,0,0,0,0,0,0,0,0,0,0,0,0,0,0,0,0,0,0,0,0,0,0,0,0,0,0,0,0,0,0,0,0,0],"split_type":[0,0,0,0,0,0,0,0,0,0,0,0,0,0,0,0,0,0,0,0,0,0,0,0,0,0,0,0,0,0,0,0,0,0,0,0,0,0,0,0,0,0,0,0,0,0,0,0,0,0,0,0,0,0,0,0,0,0,0,0,0,0,0,0,0,0,0,0,0,0,0,0,0,0,0,0,0,0,0,0,0,0,0,0,0,0,0,0,0,0,0,0,0,0,0,0,0,0,0,0,0,0,0,0,0,0,0,0,0,0,0,0,0,0,0,0,0,0,0,0,0,0,0,0,0,0,0],"sum_hessian":[6.8516E4,2.106E3,6.641E4,4.9E2,1.616E3,9.54E2,6.5456E4,2.65E2,2.25E2,5.51E2,1.065E3,1.05E2,8.49E2,1.7268E4,4.8188E4,1.77E2,8.8E1,2.4E1,2.01E2,2.44E2,3.07E2,5.05E2,5.6E2,2.9E1,7.6E1,4.08E2,4.41E2,1.5619E4,1.649E3,3.9621E4,8.567E3,5.4E1,1.23E2,5.5E1,3.3E1,1E1,1.4E1,5.4E1,1.47E2,4.8E1,1.96E2,7E0,3E2,8.1E1,4.24E2,4.02E2,1.58E2,1.8E1,1.1E1,4.2E1,3.4E1,3.2E1,3.76E2,3.29E2,1.12E2,1.3859E4,1.76E3,1.147E3,5.02E2,3.7306E4,2.315E3,1.289E3,7.278E3,4E1,1.4E1,1E0,1.22E2,3.6E1,1.9E1,2.7E1,6E0,5E0,5E0,1.2E1,2E0,5.3E1,1E0,9.6E1,5.1E1,3.2E1,1.6E1,9.6E1,1E2,6E0,1E0,1.73E2,1.27E2,5.8E1,2.3E1,1E1,4.14E2,1.81E2,2.21E2,1.4E1,1.44E2,1.3E1,5E0,1E1,1E0,4E0,3.8E1,9E0,2.5E1,2.5E1,7E0,1.58E2,2.18E2,2.09E2,1.2E2,8.5E1,2.7E1,1.3553E4,3.06E2,9.09E2,8.51E2,8.61E2,2.86E2,4.77E2,2.5E1,3.5601E4,1.705E3,1.81E2,2.134E3,8.43E2,4.46E2,8.08E2,6.47E3],"tree_param":{"num_deleted":"0","num_feature":"6","num_nodes":"127","size_leaf_vector":"1"}},{"base_weights":[-4.984038E-5,-9.771537E-2,4.7529064E-2,-4.7202375E-2,-6.954111E-1,1.1839033E-1,-8.4689185E-2,-3.7274396E-1,2.938703E-2,-1.5642498E0,-6.408891E-2,2.8458962E-2,5.301593E-1,7.4001014E-1,-1.1987514E-1,-6.086259E-1,6.1730843E-2,5.1958823E-1,-1.1550772E-1,-9.574079E-1,-3.1637356E0,3.3082852E-1,-1.4663782E0,3.5596785E-1,-8.930837E-2,1.6781774E0,2.2670317E-1,1.19270265E-1,1.1225321E0,-4.2571408E-1,-5.2280813E-2,1.5472819E0,-6.834434E-1,-3.1788507E-1,6.459628E-1,6.729418E-1,-1.1498641E0,1.4602336E-1,-2.8299236E-1,-2.7776685E0,-6.683443E-1,-2.4304676E0,-4.1245337E0,6.838994E-1,-1.14721835E-1,-4.6189365E0,-1.1837935E0,1.5150775E-1,6.5886015E-1,-7.0831966E-1,-4.9894642E-2,7.337936E-1,2.1633806E0,-6.523622E-1,5.510472E-1,-8.1886476E-1,1.4843284E0,9.313996E-2,2.0596633E0,2.9879892E-1,-8.9577556E-1,6.3168246E-1,-1.5626791E-1,1.4744174E0,-1.9264756E-1,-3.093847E-1,-1.5614362E-1,-2.1618885E-1,1.2027791E-1,1.263557E-1,5.0145346E-1,1.8301632E-2,2.888749E-1,-4.1725114E-1,6.598052E-1,7.741451E-2,-1.6411506E-1,1.0278858E-1,-1.021137E-1,-1.1302255E0,-1.7998601E-1,-3.8510963E-1,-1.3184166E-1,-1.24416895E-1,-8.035345E-1,-8.658865E-1,-1.5134041E0,-7.78875E-2,6.9968534E-1,-1.5064207E-1,3.5486162E-1,-2.0336308E0,-7.8847384E-1,-1.1703767E-1,-5.5392736E-1,-4.716249E-1,8.01954E-2,2.8697872E-1,-2.3732309E-3,-4.94238E-1,-1.849514E-2,1.6529328E-1,-2.9026851E-2,7.7486134E-1,8.701017E-2,7.7947885E-1,1.7101586E-2,1.4091592E-1,-3.4432194E-1,3.3948138E-1,4.6696957E-2,6.3001466E-1,-3.6984238E-1,3.0917525E-1,1.5556773E0,1.17145844E-1,-4.135177E-1,1.3316945E0,4.347931E-1,3.027883E-1,-5.202051E-1,-2.2020747E-1,-6.361108E-1,-3.9328018E-1,4.2619348E-1,-1.0096815E-1,1.07509635E-1],"categories":[],"categories_nodes":[],"categories_segments":[],"categories_sizes":[],"default_left":[0,0,0,0,0,0,0,0,0,0,0,0,0,0,0,0,0,0,0,0,0,0,0,0,0,0,0,0,0,0,0,0,0,0,0,0,0,0,0,0,0,0,0,0,0,0,0,0,0,0,0,0,0,0,0,0,0,0,0,0,0,0,0,0,0,0,0,0,0,0,0,0,0,0,0,0,0,0,0,0,0,0,0,0,0,0,0,0,0,0,0,0,0,0,0,0,0,0,0,0,0,0,0,0,0,0,0,0,0,0,0,0,0,0,0,0,0,0,0,0,0,0,0,0,0,0,0],"id":10,"left_children":[1,3,5,7,9,11,13,15,17,19,21,23,25,27,29,31,33,35,37,39,41,43,45,47,49,51,53,55,57,59,61,63,65,67,69,71,73,75,77,79,81,83,85,87,89,91,93,95,97,99,101,103,105,107,109,111,113,115,117,119,121,123,125,-1,-1,-1,-1,-1,-1,-1,-1,-1,-1,-1,-1,-1,-1,-1,-1,-1,-1,-1,-1,-1,-1,-1,-1,-1,-1,-1,-1,-1,-1,-1,-1,-1,-1,-1,-1,-1,-1,-1,-1,-1,-1,-1,-1,-1,-1,-1,-1,-1,-1,-1,-1,-1,-1,-1,-1,-1,-1,-1,-1,-1,-1,-1,-1],"loss_changes":[3.1839075E2,6.7761316E2,4.31675E2,5.1605E2,9.5925616E2,1.1108021E3,4.6660843E2,4.0403247E2,1.1901982E3,7.113584E2,5.6202655E2,9.4966E2,1.8728218E3,1.5610599E2,3.1875507E2,4.1317847E2,3.080412E2,9.7952466E2,5.665821E2,2.7964502E2,1.3228906E2,1.24668686E2,1.9319492E2,4.0318433E2,4.418042E2,5.1344946E2,1.2132584E3,3.2392886E2,3.9243103E2,9.507865E2,8.983867E2,6.3721814E2,1.3947632E2,2.4404562E2,1.25390366E2,6.213567E2,2.629355E2,3.9223102E2,2.8320618E2,1.550835E2,6.46436E1,5.7373413E1,8.342529E1,6.880443E2,1.7704579E2,5.9575806E1,1.0761691E2,7.7670123E2,5.2092786E2,6.582257E2,4.7949597E2,3.1352002E2,6.7954297E2,6.381038E2,7.132559E2,1.8382857E2,1.676367E2,8.586137E1,3.028902E2,1.5890427E3,3.3379102E2,2.5567917E3,1.01741064E3,0E0,0E0,0E0,0E0,0E0,0E0,0E0,0E0,0E0,0E0,0E0,0E0,0E0,0E0,0E0,0E0,0E0,0E0,0E0,0E0,0E0,0E0,0E0,0E0,0E0,0E0,0E0,0E0,0E0,0E0,0E0,0E0,0E0,0E0,0E0,0E0,0E0,0E0,0E0,0E0,0E0,0E0,0E0,0E0,0E0,0E0,0E0,0E0,0E0,0E0,0E0,0E0,0E0,0E0,0E0,0E0,0E0,0E0,0E0,0E0,0E0,0E0,0E0,0E0],"parents":[2147483647,0,0,1,1,2,2,3,3,4,4,5,5,6,6,7,7,8,8,9,9,10,10,11,11,12,12,13,13,14,14,15,15,16,16,17,17,18,18,19,19,20,20,21,21,22,22,23,23,24,24,25,25,26,26,27,27,28,28,29,29,30,30,31,31,32,32,33,33,34,34,35,35,36,36,37,37,38,38,39,39,40,40,41,41,42,42,43,43,44,44,45,45,46,46,47,47,48,48,49,49,50,50,51,51,52,52,53,53,54,54,55,55,56,56,57,57,58,58,59,59,60,60,61,61,62,62],"right_children":[2,4,6,8,10,12,14,16,18,20,22,24,26,28,30,32,34,36,38,40,42,44,46,48,50,52,54,56,58,60,62,64,66,68,70,72,74,76,78,80,82,84,86,88,90,92,94,96,98,100,102,104,106,108,110,112,114,116,118,120,122,124,126,-1,-1,-1,-1,-1,-1,-1,-1,-1,-1,-1,-1,-1,-1,-1,-1,-1,-1,-1,-1,-1,-1,-1,-1,-1,-1,-1,-1,-1,-1,-1,-1,-1,-1,-1,-1,-1,-1,-1,-1,-1,-1,-1,-1,-1,-1,-1,-1,-1,-1,-1,-1,-1,-1,-1,-1,-1,-1,-1,-1,-1,-1,-1,-1],"split_conditions":[-1.5489E2,-1.5495E2,1.37E2,3E0,4.96E0,-9.609E1,-5.03E0,2E1,5E0,2E0,-1.549E2,4E0,-9.509E1,5E0,1.56E2,-1.7993E2,-1.6998E2,7.97E0,1.3E1,3E0,-1.5493E2,6E0,2E0,1.96E0,-7.97E0,-4.99E0,-9.501E1,1.8E1,-7.98E0,1.97E0,1.5602E2,-5.01E0,7E0,2E-2,8E0,-2.17E0,-1.5499E2,1.1E1,-7.99E0,2E1,-8.28E0,2E0,5E0,-1.5492E2,1.1E1,1.3E1,7E0,-1.4E2,8E0,-1.0993E2,-5E0,3E0,5E-2,-8E0,-9.498E1,-7.99E0,4E0,2.6E1,7E0,1.5593E2,5.02E0,-1.99E0,5.03E0,1.4744174E0,-1.9264756E-1,-3.093847E-1,-1.5614362E-1,-2.1618885E-1,1.2027791E-1,1.263557E-1,5.0145346E-1,1.8301632E-2,2.888749E-1,-4.1725114E-1,6.598052E-1,7.741451E-2,-1.6411506E-1,1.0278858E-1,-1.021137E-1,-1.1302255E0,-1.7998601E-1,-3.8510963E-1,-1.3184166E-1,-1.24416895E-1,-8.035345E-1,-8.658865E-1,-1.5134041E0,-7.78875E-2,6.9968534E-1,-1.5064207E-1,3.5486162E-1,-2.0336308E0,-7.8847384E-1,-1.1703767E-1,-5.5392736E-1,-4.716249E-1,8.01954E-2,2.8697872E-1,-2.3732309E-3,-4.94238E-1,-1.849514E-2,1.6529328E-1,-2.9026851E-2,7.7486134E-1,8.701017E-2,7.7947885E-1,1.7101586E-2,1.4091592E-1,-3.4432194E-1,3.3948138E-1,4.6696957E-2,6.3001466E-1,-3.6984238E-1,3.0917525E-1,1.5556773E0,1.17145844E-1,-4.135177E-1,1.3316945E0,4.347931E-1,3.027883E-1,-5.202051E-1,-2.2020747E-1,-6.361108E-1,-3.9328018E-1,4.2619348E-1,-1.0096815E-1,1.07509635E-1],"split_indices":[3,3,3,0,2,3,2,1,0,2,3,0,3,0,3,3,3,2,1,0,3,0,0,2,2,2,3,1,2,2,3,2,1,2,4,2,3,0,2,1,2,0,0,3,0,1,0,3,2,3,2,0,2,2,3,2,0,1,0,3,2,2,2,0,0,0,0,0,0,0,0,0,0,0,0,0,0,0,0,0,0,0,0,0,0,0,0,0,0,0,0,0,0,0,0,0,0,0,0,0,0,0,0,0,0,0,0,0,0,0,0,0,0,0,0,0,0,0,0,0,0,0,0,0,0,0,0],"split_type":[0,0,0,0,0,0,0,0,0,0,0,0,0,0,0,0,0,0,0,0,0,0,0,0,0,0,0,0,0,0,0,0,0,0,0,0,0,0,0,0,0,0,0,0,0,0,0,0,0,0,0,0,0,0,0,0,0,0,0,0,0,0,0,0,0,0,0,0,0,0,0,0,0,0,0,0,0,0,0,0,0,0,0,0,0,0,0,0,0,0,0,0,0,0,0,0,0,0,0,0,0,0,0,0,0,0,0,0,0,0,0,0,0,0,0,0,0,0,0,0,0,0,0,0,0,0,0],"sum_hessian":[6.8516E4,2.2444E4,4.6072E4,2.0696E4,1.748E3,2.9996E4,1.6076E4,3.941E3,1.6755E4,7.35E2,1.013E3,2.462E4,5.376E3,6.57E2,1.5419E4,2.554E3,1.387E3,3.822E3,1.2933E4,5.34E2,2.01E2,7.91E2,2.22E2,6.511E3,1.8109E4,1.123E3,4.253E3,2.51E2,4.06E2,2.79E3,1.2629E4,8.5E1,2.469E3,8.41E2,5.46E2,3.501E3,3.21E2,5.049E3,7.884E3,7.2E1,4.62E2,1.16E2,8.5E1,4.41E2,3.5E2,1.7E1,2.05E2,3.888E3,2.623E3,1.083E3,1.7026E4,3.82E2,7.41E2,1.146E3,3.107E3,1.49E2,1.02E2,1.94E2,2.12E2,1.098E3,1.692E3,1.666E3,1.0963E4,3.3E1,5.2E1,7.86E2,1.683E3,5.39E2,3.02E2,4.49E2,9.7E1,1.126E3,2.375E3,3E2,2.1E1,4.347E3,7.02E2,6.62E2,7.222E3,4.9E1,2.3E1,1.24E2,3.38E2,1.3E1,1.03E2,3.8E1,4.7E1,2.81E2,1.6E2,2.7E2,8E1,7E0,1E1,9.4E1,1.11E2,2.44E2,3.644E3,1.813E3,8.1E2,4.41E2,6.42E2,1.231E3,1.5795E4,7.3E1,3.09E2,6.14E2,1.27E2,3.51E2,7.95E2,1.258E3,1.849E3,1.8E1,1.31E2,9.2E1,1E1,1.62E2,3.2E1,4.2E1,1.7E2,8.14E2,2.84E2,1.496E3,1.96E2,4.81E2,1.185E3,8.119E3,2.844E3],"tree_param":{"num_deleted":"0","num_feature":"6","num_nodes":"127","size_leaf_vector":"1"}},{"base_weights":[-6.486678E-5,-9.019328E-3,5.5027133E-1,-3.8826165E-1,2.634284E-3,1.2411344E0,2.436076E-1,5.1595885E-1,-5.8988005E-1,-3.3006138E-1,1.3701851E-2,1.7001346E0,8.68309E-1,-2.4253571E-2,7.568445E-1,9.768321E-1,-1.9065123E0,-1.6805804E-1,-8.8280785E-1,2.5103104E-1,-5.0594586E-1,6.5140194E-1,4.1525895E-3,5.579279E-1,2.153938E0,1.3889587E0,8.276006E-2,3.1596965E-1,-7.1275204E-1,4.008501E-1,1.5429945E0,5.359703E-1,3.3051605E0,1.4297061E0,-2.457874E0,-4.1156375E-1,8.559588E-1,-1.5046057E0,-6.553803E-1,1.0634925E0,-7.1059465E-1,-2.57875E-1,-6.847895E-1,-1.3344052E0,7.8440565E-1,-2.9453728E-1,1.7818559E-2,-2.5865707E0,1.2227404E0,2.454648E0,1.4652017E0,3.0682507E-1,2.1005645E0,1.3679622E0,-8.830225E-1,-3.2165924E-1,1.0716197E0,-1.6025974E0,3.3658332E-1,1.6793696E0,1.4431E-2,2.3674646E-2,1.7814065E0,-3.072148E-1,3.4763414E-1,1.3120927E0,5.01675E-1,1.0227852E0,-5.691261E-1,9.471589E-1,-7.8999585E-1,1.6023049E-1,-2.3735982E-1,-4.2412862E-1,3.296277E-1,-7.270419E-1,-3.47447E-1,-2.6582915E-1,-4.364556E-2,1.5967794E-1,6.342026E-1,-8.2504493E-1,-1.8088207E-1,-9.314225E-2,1.1077012E0,-3.971769E-1,-1.2211429E-1,9.083466E-1,-5.383158E-1,4.1507015E-1,1.4838989E-1,-7.037285E-1,-3.06351E-2,1.7066646E-1,1.6504584E-3,-1.3109207E-1,-8.4936947E-1,7.293301E-1,1.1445506E-1,6.365818E-1,9.865682E-1,8.984249E-1,2.2007777E-1,5.857303E-1,-1.4224277E-1,-9.46858E-2,7.018438E-1,6.919683E-1,-2.1567681E-1,2.090466E-2,-6.4207464E-1,-1.7065575E0,-6.927857E-2,7.6844096E-1,1.2991332E-1,-3.4092107E-1,-1.1573418E0,6.2070036E-1,-3.4776308E-2,1.2879996E0,3.8737002E-1,-4.7858277E-1,1.3480708E-1,4.9084762E-1,-2.961262E-1,5.8632004E-1,-4.6847594E-1],"categories":[],"categories_nodes":[],"categories_segments":[],"categories_sizes":[],"default_left":[0,0,0,0,0,0,0,0,0,0,0,0,0,0,0,0,0,0,0,0,0,0,0,0,0,0,0,0,0,0,0,0,0,0,0,0,0,0,0,0,0,0,0,0,0,0,0,0,0,0,0,0,0,0,0,0,0,0,0,0,0,0,0,0,0,0,0,0,0,0,0,0,0,0,0,0,0,0,0,0,0,0,0,0,0,0,0,0,0,0,0,0,0,0,0,0,0,0,0,0,0,0,0,0,0,0,0,0,0,0,0,0,0,0,0,0,0,0,0,0,0,0,0,0,0,0,0],"id":11,"left_children":[1,3,5,7,9,11,13,15,17,19,21,23,25,27,29,31,33,35,37,39,41,43,45,47,49,51,53,55,57,59,61,63,65,67,69,71,73,75,77,79,81,83,85,87,89,91,93,95,97,99,101,103,105,107,109,111,113,115,117,119,121,123,125,-1,-1,-1,-1,-1,-1,-1,-1,-1,-1,-1,-1,-1,-1,-1,-1,-1,-1,-1,-1,-1,-1,-1,-1,-1,-1,-1,-1,-1,-1,-1,-1,-1,-1,-1,-1,-1,-1,-1,-1,-1,-1,-1,-1,-1,-1,-1,-1,-1,-1,-1,-1,-1,-1,-1,-1,-1,-1,-1,-1,-1,-1,-1,-1],"loss_changes":[3.3765433E2,2.9797104E2,2.32111E2,3.6674243E2,2.4086009E2,5.6193542E1,1.0463777E2,4.1160028E2,2.0298987E2,2.15371E2,3.8550937E2,7.654883E1,7.677626E1,1.1758104E2,7.242627E1,3.1540808E2,1.1204239E2,1.686662E2,1.3618542E2,3.835848E2,7.156308E1,2.477345E2,2.5460886E2,9.514479E1,1.856424E1,8.637143E1,9.554111E1,1.6223767E2,1.5554126E2,8.939779E1,2.9297974E1,2.547732E2,7.817816E1,6.5738525E1,5.855594E1,1.964411E2,7.3194885E1,7.964349E1,8.3631744E1,1.4732104E2,4.7744423E1,1.4222752E2,1.6614682E2,1.2381895E2,1.5140735E2,1.0768889E3,4.048466E2,2.9701996E0,3.6683033E1,1.3275726E1,3.696917E1,6.0043434E1,3.9992188E1,6.629692E1,5.285081E1,8.779628E1,1.454035E2,9.0238754E1,6.0602192E1,3.7068405E1,9.87313E1,2.117308E1,4.353409E1,0E0,0E0,0E0,0E0,0E0,0E0,0E0,0E0,0E0,0E0,0E0,0E0,0E0,0E0,0E0,0E0,0E0,0E0,0E0,0E0,0E0,0E0,0E0,0E0,0E0,0E0,0E0,0E0,0E0,0E0,0E0,0E0,0E0,0E0,0E0,0E0,0E0,0E0,0E0,0E0,0E0,0E0,0E0,0E0,0E0,0E0,0E0,0E0,0E0,0E0,0E0,0E0,0E0,0E0,0E0,0E0,0E0,0E0,0E0,0E0,0E0,0E0,0E0,0E0],"parents":[2147483647,0,0,1,1,2,2,3,3,4,4,5,5,6,6,7,7,8,8,9,9,10,10,11,11,12,12,13,13,14,14,15,15,16,16,17,17,18,18,19,19,20,20,21,21,22,22,23,23,24,24,25,25,26,26,27,27,28,28,29,29,30,30,31,31,32,32,33,33,34,34,35,35,36,36,37,37,38,38,39,39,40,40,41,41,42,42,43,43,44,44,45,45,46,46,47,47,48,48,49,49,50,50,51,51,52,52,53,53,54,54,55,55,56,56,57,57,58,58,59,59,60,60,61,61,62,62],"right_children":[2,4,6,8,10,12,14,16,18,20,22,24,26,28,30,32,34,36,38,40,42,44,46,48,50,52,54,56,58,60,62,64,66,68,70,72,74,76,78,80,82,84,86,88,90,92,94,96,98,100,102,104,106,108,110,112,114,116,118,120,122,124,126,-1,-1,-1,-1,-1,-1,-1,-1,-1,-1,-1,-1,-1,-1,-1,-1,-1,-1,-1,-1,-1,-1,-1,-1,-1,-1,-1,-1,-1,-1,-1,-1,-1,-1,-1,-1,-1,-1,-1,-1,-1,-1,-1,-1,-1,-1,-1,-1,-1,-1,-1,-1,-1,-1,-1,-1,-1,-1,-1,-1,-1,-1,-1,-1],"split_conditions":[8.98E0,-1.7989E2,5E0,-5.02E0,-8.03E0,-1.4026E2,1E1,-1.7991E2,5E0,-1.5497E2,-8.01E0,8E0,3E0,2.2E1,2.2E1,-7.99E0,6E0,8E-2,7E0,-8.27E0,5E0,-1.7001E2,-5.04E0,2E0,2.2E1,-1.4025E2,1.3E1,1.3E1,2.7E1,6E0,8.99E0,4E0,3E0,4E0,-5.03E0,-4.96E0,-1.7991E2,-4.98E0,4E-2,8E0,-1.55E2,-9.609E1,7E0,-1.7005E2,1.1E1,-1.7979E2,-5.01E0,9E0,4E0,4E0,2E0,9E0,4E0,4E0,-1.4025E2,-1.4028E2,-1.4026E2,2.6E1,6E0,-1.4026E2,9E0,2.6E1,3.1E1,-3.072148E-1,3.4763414E-1,1.3120927E0,5.01675E-1,1.0227852E0,-5.691261E-1,9.471589E-1,-7.8999585E-1,1.6023049E-1,-2.3735982E-1,-4.2412862E-1,3.296277E-1,-7.270419E-1,-3.47447E-1,-2.6582915E-1,-4.364556E-2,1.5967794E-1,6.342026E-1,-8.2504493E-1,-1.8088207E-1,-9.314225E-2,1.1077012E0,-3.971769E-1,-1.2211429E-1,9.083466E-1,-5.383158E-1,4.1507015E-1,1.4838989E-1,-7.037285E-1,-3.06351E-2,1.7066646E-1,1.6504584E-3,-1.3109207E-1,-8.4936947E-1,7.293301E-1,1.1445506E-1,6.365818E-1,9.865682E-1,8.984249E-1,2.2007777E-1,5.857303E-1,-1.4224277E-1,-9.46858E-2,7.018438E-1,6.919683E-1,-2.1567681E-1,2.090466E-2,-6.4207464E-1,-1.7065575E0,-6.927857E-2,7.6844096E-1,1.2991332E-1,-3.4092107E-1,-1.1573418E0,6.2070036E-1,-3.4776308E-2,1.2879996E0,3.8737002E-1,-4.7858277E-1,1.3480708E-1,4.9084762E-1,-2.961262E-1,5.8632004E-1,-4.6847594E-1],"split_indices":[2,3,0,2,2,3,0,3,0,3,2,1,0,1,1,2,1,2,0,2,0,3,2,0,1,3,1,1,1,1,2,0,0,0,2,2,3,2,2,0,3,3,0,3,1,3,2,2,1,0,0,2,1,0,3,3,3,1,0,3,1,1,1,0,0,0,0,0,0,0,0,0,0,0,0,0,0,0,0,0,0,0,0,0,0,0,0,0,0,0,0,0,0,0,0,0,0,0,0,0,0,0,0,0,0,0,0,0,0,0,0,0,0,0,0,0,0,0,0,0,0,0,0,0,0,0,0],"split_type":[0,0,0,0,0,0,0,0,0,0,0,0,0,0,0,0,0,0,0,0,0,0,0,0,0,0,0,0,0,0,0,0,0,0,0,0,0,0,0,0,0,0,0,0,0,0,0,0,0,0,0,0,0,0,0,0,0,0,0,0,0,0,0,0,0,0,0,0,0,0,0,0,0,0,0,0,0,0,0,0,0,0,0,0,0,0,0,0,0,0,0,0,0,0,0,0,0,0,0,0,0,0,0,0,0,0,0,0,0,0,0,0,0,0,0,0,0,0,0,0,0,0,0,0,0,0,0],"sum_hessian":[6.8516E4,6.742E4,1.096E3,2.009E3,6.5411E4,3.36E2,7.6E2,3.66E2,1.643E3,2.105E3,6.3306E4,1.49E2,1.87E2,5E2,2.6E2,3.08E2,5.8E1,6.74E2,9.69E2,4.89E2,1.616E3,9.33E2,6.2373E4,4.3E1,1.06E2,1.12E2,7.5E1,3.35E2,1.65E2,1.8E2,8E1,2.6E2,4.8E1,8E0,5E1,5.45E2,1.29E2,2.58E2,7.11E2,2.65E2,2.24E2,6.78E2,9.38E2,5.8E1,8.75E2,2.728E3,5.9645E4,7E0,3.6E1,7.2E1,3.4E1,4.5E1,6.7E1,3.2E1,4.3E1,1.82E2,1.53E2,8.9E1,7.6E1,4.1E1,1.39E2,1.1E1,6.9E1,7.4E1,1.86E2,2.8E1,2E1,5E0,3E0,1E0,4.9E1,1.56E2,3.89E2,1.2E1,1.17E2,6.9E1,1.89E2,4.89E2,2.22E2,1.77E2,8.8E1,1E1,2.14E2,6.7E2,8E0,2.83E2,6.55E2,5E0,5.3E1,2.84E2,5.91E2,2.33E2,2.495E3,1.303E3,5.8342E4,1E0,6E0,1.4E1,2.2E1,5.4E1,1.8E1,1E1,2.4E1,1.4E1,3.1E1,6E0,6.1E1,2.2E1,1E1,2.5E1,1.8E1,2E0,1.8E2,4.5E1,1.08E2,7.5E1,1.4E1,1.5E1,6.1E1,4E0,3.7E1,2.9E1,1.1E2,4E0,7E0,6.6E1,3E0],"tree_param":{"num_deleted":"0","num_feature":"6","num_nodes":"127","size_leaf_vector":"1"}},{"base_weights":[2.8507759E-5,3.796167E-3,-6.958041E-1,-3.1505625E-3,1.2694726E0,-2.5505219E-2,-1.4889063E0,2.7822526E-3,-1.8762697E0,-4.1081923E-1,1.7534693E0,-9.209079E-1,9.634343E-1,-6.658942E-1,-2.0501258E0,-3.579644E-3,3.882573E-1,-1.3456113E0,-3.545911E0,1.5102564E0,-1.8138378E0,2.096405E0,9.1960484E-1,3.6910427E0,-1.1857673E0,-5.9825844E-1,1.6152822E0,-2.6782568E0,5.1160175E-1,2.059203E-1,-2.8048866E0,-5.6576554E-2,4.74179E-2,8.792118E-1,1.7033362E-1,-3.7499886E0,-5.907199E-1,-1.800797E0,-2.7202399E0,-2.6310654E0,2.2630847E0,1.3516235E0,-2.6601515E0,4.0061027E-1,2.4095726E0,3.694719E0,4.1965762E-1,1.5319386E0,1.6018502E0,-2.5725954E0,-9.6987367E-1,3.5892627E0,-1.6202112E0,3.5042122E-1,2.7978532E0,1.1498795E-1,-4.1637974E0,6.3867307E-1,1.576526E-1,1.9690893E0,-8.4361774E-1,-6.507072E0,-1.6906148E0,-8.405414E-3,-2.2864164E-1,5.282876E-3,1.302469E-1,3.6223838E-1,1.8379019E-1,-3.4080133E-2,1.4409631E-1,-1.253393E0,-2.0991747E-1,6.4095676E-1,-4.7442737E-1,-1.3191252E0,-2.9811314E-1,-1.6711655E-1,-1.058642E0,1.5125715E0,4.6043307E-1,1.7363387E-1,1.3620095E0,-1.7132841E0,-6.741843E-1,7.581845E-1,-2.0823753E-2,5.47511E-1,9.4770753E-1,1.2729584E0,-4.330479E-1,-6.8362635E-1,2.6306704E-1,9.138794E-2,5.5185014E-1,-2.0419388E-1,-1.100995E0,-9.8883875E-2,-4.851584E-1,3.2206765E-1,1.1633075E0,-2.582676E-2,-1.4033084E0,-1.0048592E0,2.0590232E-1,-3.0124897E-1,9.176124E-1,-1.1038361E-1,6.6920817E-1,-2.3922188E0,-5.735045E-1,3.5205072E-1,-1.9034646E-1,3.9180407E-1,1.3884315E0,-6.720566E-1,-2.0779932E0,1.1585403E-1,-7.0359325E-1],"categories":[],"categories_nodes":[],"categories_segments":[],"categories_sizes":[],"default_left":[0,0,0,0,0,0,0,0,0,0,0,0,0,0,0,0,0,0,0,0,0,0,0,0,0,0,0,0,0,0,0,0,0,0,0,0,0,0,0,0,0,0,0,0,0,0,0,0,0,0,0,0,0,0,0,0,0,0,0,0,0,0,0,0,0,0,0,0,0,0,0,0,0,0,0,0,0,0,0,0,0,0,0,0,0,0,0,0,0,0,0,0,0,0,0,0,0,0,0,0,0,0,0,0,0,0,0,0,0,0,0,0,0,0,0,0,0,0,0],"id":12,"left_children":[1,3,5,7,9,11,13,15,17,19,21,23,25,27,29,31,33,35,37,39,41,43,45,47,49,51,53,55,57,59,61,63,65,67,69,71,73,-1,75,77,79,81,83,85,87,89,91,93,-1,95,97,99,101,103,105,107,109,-1,111,113,-1,115,117,-1,-1,-1,-1,-1,-1,-1,-1,-1,-1,-1,-1,-1,-1,-1,-1,-1,-1,-1,-1,-1,-1,-1,-1,-1,-1,-1,-1,-1,-1,-1,-1,-1,-1,-1,-1,-1,-1,-1,-1,-1,-1,-1,-1,-1,-1,-1,-1,-1,-1,-1,-1,-1,-1,-1,-1],"loss_changes":[1.7963094E2,5.991913E2,1.9612816E2,7.5321326E2,3.032514E2,1.7887254E2,7.6694336E1,1.656946E2,1.848346E2,2.2914496E2,8.071521E1,1.3385767E2,9.869303E1,1.6723862E2,1.708551E2,1.7964928E2,1.1721893E2,2.9545203E2,8.7122986E1,1.18191666E2,1.348652E2,1.073725E2,1.1776679E2,1.3175362E1,2.7745056E1,1.2991937E2,1.0073314E2,1.0836525E2,2.5424393E1,1.438886E2,2.983921E2,6.567817E2,3.904925E2,2.8749146E1,6.703473E1,4.7990112E1,3.438171E2,0E0,1.1143536E2,9.205807E0,5.5000717E1,2.447788E1,3.6289642E1,3.3161694E1,6.958484E1,4.27614E1,9.329954E1,9.495373E-1,0E0,2.449266E1,3.635337E1,1.9068146E-1,1.1217056E2,4.455708E1,3.7783478E1,1.1038222E1,1.306358E2,0E0,3.132302E1,2.3928825E1,0E0,1.491748E1,8.1126175E1,0E0,0E0,0E0,0E0,0E0,0E0,0E0,0E0,0E0,0E0,0E0,0E0,0E0,0E0,0E0,0E0,0E0,0E0,0E0,0E0,0E0,0E0,0E0,0E0,0E0,0E0,0E0,0E0,0E0,0E0,0E0,0E0,0E0,0E0,0E0,0E0,0E0,0E0,0E0,0E0,0E0,0E0,0E0,0E0,0E0,0E0,0E0,0E0,0E0,0E0,0E0,0E0,0E0,0E0,0E0,0E0],"parents":[2147483647,0,0,1,1,2,2,3,3,4,4,5,5,6,6,7,7,8,8,9,9,10,10,11,11,12,12,13,13,14,14,15,15,16,16,17,17,18,18,19,19,20,20,21,21,22,22,23,23,24,24,25,25,26,26,27,27,28,28,29,29,30,30,31,31,32,32,33,33,34,34,35,35,36,36,38,38,39,39,40,40,41,41,42,42,43,43,44,44,45,45,46,46,47,47,49,49,50,50,51,51,52,52,53,53,54,54,55,55,56,56,58,58,59,59,61,61,62,62],"right_children":[2,4,6,8,10,12,14,16,18,20,22,24,26,28,30,32,34,36,38,40,42,44,46,48,50,52,54,56,58,60,62,64,66,68,70,72,74,-1,76,78,80,82,84,86,88,90,92,94,-1,96,98,100,102,104,106,108,110,-1,112,114,-1,116,118,-1,-1,-1,-1,-1,-1,-1,-1,-1,-1,-1,-1,-1,-1,-1,-1,-1,-1,-1,-1,-1,-1,-1,-1,-1,-1,-1,-1,-1,-1,-1,-1,-1,-1,-1,-1,-1,-1,-1,-1,-1,-1,-1,-1,-1,-1,-1,-1,-1,-1,-1,-1,-1,-1,-1,-1],"split_conditions":[1.6521E2,1.6518E2,6E0,1.6516E2,-4.99E0,-4.99E0,-4.98E0,8.98E0,1E1,5E0,2.2E1,2E0,2E0,7E0,7E0,-1.25E2,5E0,3E0,8E0,6E0,7E0,4E0,3E0,2.5E1,5E0,-4.98E0,5E-2,1.3E1,6E0,1.9E1,9E0,8.02E0,1E1,-1.4026E2,9E0,2.5E1,6E0,-1.800797E0,1.1E1,3E0,1E1,8E0,9E0,3E0,7E0,-2.19E0,4E0,1.3E1,1.6018502E0,4E0,1.8E1,2.2E1,2.1E1,3E0,3E0,-4.99E0,1.9E1,6.3867307E-1,8E0,1.7E1,-8.4361774E-1,2E0,1.3E1,-8.405414E-3,-2.2864164E-1,5.282876E-3,1.302469E-1,3.6223838E-1,1.8379019E-1,-3.4080133E-2,1.4409631E-1,-1.253393E0,-2.0991747E-1,6.4095676E-1,-4.7442737E-1,-1.3191252E0,-2.9811314E-1,-1.6711655E-1,-1.058642E0,1.5125715E0,4.6043307E-1,1.7363387E-1,1.3620095E0,-1.7132841E0,-6.741843E-1,7.581845E-1,-2.0823753E-2,5.47511E-1,9.4770753E-1,1.2729584E0,-4.330479E-1,-6.8362635E-1,2.6306704E-1,9.138794E-2,5.5185014E-1,-2.0419388E-1,-1.100995E0,-9.8883875E-2,-4.851584E-1,3.2206765E-1,1.1633075E0,-2.582676E-2,-1.4033084E0,-1.0048592E0,2.0590232E-1,-3.0124897E-1,9.176124E-1,-1.1038361E-1,6.6920817E-1,-2.3922188E0,-5.735045E-1,3.5205072E-1,-1.9034646E-1,3.9180407E-1,1.3884315E0,-6.720566E-1,-2.0779932E0,1.1585403E-1,-7.0359325E-1],"split_indices":[3,3,0,3,2,2,2,2,0,0,1,0,0,0,0,3,0,0,1,1,1,1,0,1,1,2,2,1,1,1,1,2,4,3,0,1,0,0,0,0,1,0,1,0,0,2,0,1,0,0,1,1,1,1,1,2,1,0,0,1,0,1,1,0,0,0,0,0,0,0,0,0,0,0,0,0,0,0,0,0,0,0,0,0,0,0,0,0,0,0,0,0,0,0,0,0,0,0,0,0,0,0,0,0,0,0,0,0,0,0,0,0,0,0,0,0,0,0,0],"split_type":[0,0,0,0,0,0,0,0,0,0,0,0,0,0,0,0,0,0,0,0,0,0,0,0,0,0,0,0,0,0,0,0,0,0,0,0,0,0,0,0,0,0,0,0,0,0,0,0,0,0,0,0,0,0,0,0,0,0,0,0,0,0,0,0,0,0,0,0,0,0,0,0,0,0,0,0,0,0,0,0,0,0,0,0,0,0,0,0,0,0,0,0,0,0,0,0,0,0,0,0,0,0,0,0,0,0,0,0,0,0,0,0,0,0,0,0,0,0,0],"sum_hessian":[6.8516E4,6.8148E4,3.68E2,6.7777E4,3.71E2,2E2,1.68E2,6.7564E4,2.13E2,8.3E1,2.88E2,1.05E2,9.5E1,6.9E1,9.9E1,6.6468E4,1.096E3,1.63E2,5E1,3.5E1,4.8E1,2.03E2,8.5E1,5E0,1E2,2.8E1,6.7E1,2.5E1,4.4E1,2.5E1,7.4E1,3.2595E4,3.3873E4,3.36E2,7.6E2,3.8E1,1.25E2,1.1E1,3.9E1,5E0,3E1,1E1,3.8E1,3.2E1,1.71E2,1.2E1,7.3E1,3E0,2E0,1.2E1,8.8E1,5E0,2.3E1,3.3E1,3.4E1,9E0,1.6E1,7E0,3.7E1,1.6E1,9E0,1.6E1,5.8E1,3.1328E4,1.267E3,3.145E4,2.423E3,1.49E2,1.87E2,3.97E2,3.63E2,3.3E1,5E0,3.3E1,9.2E1,1.9E1,2E1,2E0,3E0,5E0,2.5E1,9E0,1E0,3E0,3.5E1,5E0,2.7E1,9.8E1,7.3E1,1.1E1,1E0,1E1,6.3E1,1E0,2E0,5E0,7E0,4.5E1,4.3E1,1E0,4E0,1.6E1,7E0,2E0,3.1E1,2E0,3.2E1,8E0,1E0,5E0,1.1E1,1.6E1,2.1E1,1.4E1,2E0,2E0,1.4E1,1.4E1,4.4E1],"tree_param":{"num_deleted":"0","num_feature":"6","num_nodes":"119","size_leaf_vector":"1"}},{"base_weights":[-5.620539E-5,-2.4935175E-2,8.84064E-2,1.2227209E-2,-1.9164868E-1,4.7845814E-2,4.7085783E-1,7.036402E-2,-1.4017351E-1,-8.6458184E-2,-3.2810572E-1,1.2216712E-1,-2.7053592E-1,1.0801576E0,1.9782016E-1,-3.7705418E-1,1.3031964E-1,1.8893982E-1,-3.0077943E-1,-1.3386083E-1,2.4014091E0,-1.086826E0,-2.3149084E-1,8.948402E-2,8.8303995E-1,7.60957E-2,-8.153187E-1,1.9015553E0,-3.1678757E-1,-5.290533E-1,3.4365654E-1,-5.88634E-1,2.2560978E-2,1.5771915E-1,-2.2905666E-1,1.5515953E-1,1.2688974E0,-5.6397605E-1,-2.482192E-2,-2.7307266E-1,2.4810034E-1,-5.7322154E0,4.6813097E0,2.8847978E-1,-2.0403538E0,-4.6884298E-1,-5.8328886E-2,4.7310542E-2,4.990358E-1,-2.9185468E-1,1.6847899E0,-4.7714487E-1,8.8210285E-1,-1.8169242E0,-5.8751905E-1,2.3933387E0,7.9578763E-1,-1.3566836E0,6.4307994E-1,-1.550845E0,1.1396248E0,-2.4897358E-1,5.875707E-1,1.727134E-1,-2.1449517E-1,1.3400309E-1,-2.957633E-1,-9.257237E-2,5.409903E-2,8.08047E-2,-1.4693566E-1,6.046735E-2,-3.6444646E-1,5.416611E-1,1.2789689E-1,-2.1881315E-1,-2.0216774E-2,7.586637E-2,-1.7836389E-1,-4.446832E-2,-3.8462603E-1,-7.2927415E-2,2.9217926E-1,-4.1676196E-1,-2.879262E0,1.6984547E0,1.0605181E0,4.5321003E-1,-1.1025067E-1,-1.8830081E0,-3.3793008E-1,-1.955797E-3,-2.6415706E-1,2.892021E-1,-1.0529818E-1,5.2104563E-2,-7.5442344E-2,7.069304E-2,5.7340133E-1,-2.683483E-1,6.681752E-1,1.0636206E0,1.5479912E-1,4.5277622E-1,-2.8113914E-1,4.7946873E-1,-2.8584724E-2,-9.069072E-1,-4.8104156E-2,-3.2138294E-1,2.1240452E-2,4.287726E-1,9.693713E-1,4.4956788E-1,-4.553249E-1,-7.168273E-1,8.012896E-2,-1.3113768E-1,4.715113E-1,-1.1842177E0,-3.846757E-1,6.3244045E-1,-1.3667285E-1,-5.1616806E-1,7.6111235E-2,2.0218332E-1,-4.701817E-1],"categories":[],"categories_nodes":[],"categories_segments":[],"categories_sizes":[],"default_left":[0,0,0,0,0,0,0,0,0,0,0,0,0,0,0,0,0,0,0,0,0,0,0,0,0,0,0,0,0,0,0,0,0,0,0,0,0,0,0,0,0,0,0,0,0,0,0,0,0,0,0,0,0,0,0,0,0,0,0,0,0,0,0,0,0,0,0,0,0,0,0,0,0,0,0,0,0,0,0,0,0,0,0,0,0,0,0,0,0,0,0,0,0,0,0,0,0,0,0,0,0,0,0,0,0,0,0,0,0,0,0,0,0,0,0,0,0,0,0,0,0,0,0,0,0,0,0],"id":13,"left_children":[1,3,5,7,9,11,13,15,17,19,21,23,25,27,29,31,33,35,37,39,41,43,45,47,49,51,53,55,57,59,61,63,65,67,69,71,73,75,77,79,81,83,85,87,89,91,93,95,97,99,101,103,105,107,109,111,113,115,117,119,121,123,125,-1,-1,-1,-1,-1,-1,-1,-1,-1,-1,-1,-1,-1,-1,-1,-1,-1,-1,-1,-1,-1,-1,-1,-1,-1,-1,-1,-1,-1,-1,-1,-1,-1,-1,-1,-1,-1,-1,-1,-1,-1,-1,-1,-1,-1,-1,-1,-1,-1,-1,-1,-1,-1,-1,-1,-1,-1,-1,-1,-1,-1,-1,-1,-1],"loss_changes":[1.5079842E2,3.3132376E2,2.3328476E2,3.8747052E2,1.3989429E2,3.2181998E2,2.3968008E2,8.492289E2,6.383646E2,6.496521E2,3.1077594E2,2.7411206E2,4.861335E2,5.1236395E2,1.0586841E2,3.163167E2,2.749176E2,1.4430547E2,5.8945996E2,2.8741742E2,1.9368516E3,6.2874554E2,1.5471553E2,1.8259558E2,4.2814682E2,7.022925E2,2.2732605E2,1.5090271E2,1.6656741E2,2.8650934E2,1.2026809E2,3.6025464E2,5.54733E2,2.7353937E2,2.5717047E2,2.444607E2,5.3489304E1,3.411438E2,6.2716846E2,4.9877826E2,5.150544E2,3.7277112E2,7.099463E1,1.585008E2,1.0886141E3,3.022377E2,6.520002E2,3.6202823E2,3.667033E2,2.8284308E2,5.853314E2,8.5482404E2,4.488082E2,3.6914465E2,2.602637E2,1.5209814E2,1.4535269E2,1.3479369E2,8.7957184E1,6.188275E1,9.983837E1,1.8019182E2,1.1068184E2,0E0,0E0,0E0,0E0,0E0,0E0,0E0,0E0,0E0,0E0,0E0,0E0,0E0,0E0,0E0,0E0,0E0,0E0,0E0,0E0,0E0,0E0,0E0,0E0,0E0,0E0,0E0,0E0,0E0,0E0,0E0,0E0,0E0,0E0,0E0,0E0,0E0,0E0,0E0,0E0,0E0,0E0,0E0,0E0,0E0,0E0,0E0,0E0,0E0,0E0,0E0,0E0,0E0,0E0,0E0,0E0,0E0,0E0,0E0,0E0,0E0,0E0,0E0,0E0],"parents":[2147483647,0,0,1,1,2,2,3,3,4,4,5,5,6,6,7,7,8,8,9,9,10,10,11,11,12,12,13,13,14,14,15,15,16,16,17,17,18,18,19,19,20,20,21,21,22,22,23,23,24,24,25,25,26,26,27,27,28,28,29,29,30,30,31,31,32,32,33,33,34,34,35,35,36,36,37,37,38,38,39,39,40,40,41,41,42,42,43,43,44,44,45,45,46,46,47,47,48,48,49,49,50,50,51,51,52,52,53,53,54,54,55,55,56,56,57,57,58,58,59,59,60,60,61,61,62,62],"right_children":[2,4,6,8,10,12,14,16,18,20,22,24,26,28,30,32,34,36,38,40,42,44,46,48,50,52,54,56,58,60,62,64,66,68,70,72,74,76,78,80,82,84,86,88,90,92,94,96,98,100,102,104,106,108,110,112,114,116,118,120,122,124,126,-1,-1,-1,-1,-1,-1,-1,-1,-1,-1,-1,-1,-1,-1,-1,-1,-1,-1,-1,-1,-1,-1,-1,-1,-1,-1,-1,-1,-1,-1,-1,-1,-1,-1,-1,-1,-1,-1,-1,-1,-1,-1,-1,-1,-1,-1,-1,-1,-1,-1,-1,-1,-1,-1,-1,-1,-1,-1,-1,-1,-1,-1,-1,-1],"split_conditions":[5E0,1E1,1.6501E2,2.3E1,-1.2434E2,1.3703E2,1.6503E2,2E0,4E0,-1.2441E2,-1.0999E2,-9.492E1,5.07E0,7.99E0,7.98E0,-1.0999E2,1.6497E2,4.99E0,7E0,-1.3995E2,-5E-2,-1.98E0,-1.98E0,1.1E1,5.04E0,5.04E0,3E0,2.2E1,8.01E0,8E0,1E1,-1.7987E2,1.5607E2,-1.7988E2,-4.97E0,4.97E0,-1.549E2,-9.501E1,3E-2,-1.4001E2,-2.01E0,-1.2438E2,-1.2436E2,-1.1E2,-1E-2,-9.508E1,0E0,8E0,-1.1015E2,2.5E1,-9.487E1,1.5604E2,8E0,1.5604E2,8.01E0,5E0,9E0,5E0,1.5E1,5E0,1.7E1,4E0,8.06E0,1.727134E-1,-2.1449517E-1,1.3400309E-1,-2.957633E-1,-9.257237E-2,5.409903E-2,8.08047E-2,-1.4693566E-1,6.046735E-2,-3.6444646E-1,5.416611E-1,1.2789689E-1,-2.1881315E-1,-2.0216774E-2,7.586637E-2,-1.7836389E-1,-4.446832E-2,-3.8462603E-1,-7.2927415E-2,2.9217926E-1,-4.1676196E-1,-2.879262E0,1.6984547E0,1.0605181E0,4.5321003E-1,-1.1025067E-1,-1.8830081E0,-3.3793008E-1,-1.955797E-3,-2.6415706E-1,2.892021E-1,-1.0529818E-1,5.2104563E-2,-7.5442344E-2,7.069304E-2,5.7340133E-1,-2.683483E-1,6.681752E-1,1.0636206E0,1.5479912E-1,4.5277622E-1,-2.8113914E-1,4.7946873E-1,-2.8584724E-2,-9.069072E-1,-4.8104156E-2,-3.2138294E-1,2.1240452E-2,4.287726E-1,9.693713E-1,4.4956788E-1,-4.553249E-1,-7.168273E-1,8.012896E-2,-1.3113768E-1,4.715113E-1,-1.1842177E0,-3.846757E-1,6.3244045E-1,-1.3667285E-1,-5.1616806E-1,7.6111235E-2,2.0218332E-1,-4.701817E-1],"split_indices":[2,0,3,1,3,3,3,0,0,3,3,3,2,2,2,3,3,2,0,3,2,2,2,0,2,2,0,1,2,0,1,3,3,3,2,2,3,3,2,3,2,3,3,3,2,3,2,0,3,1,3,3,0,3,2,0,0,0,1,1,1,0,2,0,0,0,0,0,0,0,0,0,0,0,0,0,0,0,0,0,0,0,0,0,0,0,0,0,0,0,0,0,0,0,0,0,0,0,0,0,0,0,0,0,0,0,0,0,0,0,0,0,0,0,0,0,0,0,0,0,0,0,0,0,0,0,0],"split_type":[0,0,0,0,0,0,0,0,0,0,0,0,0,0,0,0,0,0,0,0,0,0,0,0,0,0,0,0,0,0,0,0,0,0,0,0,0,0,0,0,0,0,0,0,0,0,0,0,0,0,0,0,0,0,0,0,0,0,0,0,0,0,0,0,0,0,0,0,0,0,0,0,0,0,0,0,0,0,0,0,0,0,0,0,0,0,0,0,0,0,0,0,0,0,0,0,0,0,0,0,0,0,0,0,0,0,0,0,0,0,0,0,0,0,0,0,0,0,0,0,0,0,0,0,0,0,0],"sum_hessian":[6.8516E4,5.3477E4,1.5039E4,4.373E4,9.747E3,1.3598E4,1.441E3,3.1655E4,1.2075E4,5.505E3,4.242E3,1.1025E4,2.573E3,4.45E2,9.96E2,3.74E3,2.7915E4,3.96E3,8.115E3,5.403E3,1.02E2,4.78E2,3.764E3,1.0572E4,4.53E2,1.573E3,1E3,2.8E2,1.65E2,1.66E2,8.3E2,2.445E3,1.295E3,2.5938E4,1.977E3,3.841E3,1.19E2,4.153E3,3.962E3,3.96E3,1.443E3,2.2E1,8E1,1.96E2,2.82E2,1.587E3,2.177E3,9.586E3,9.86E2,1.84E2,2.69E2,9.33E2,6.4E2,1.84E2,8.16E2,1.93E2,8.7E1,7.9E1,8.6E1,1.03E2,6.3E1,2.42E2,5.88E2,2.39E2,2.206E3,9.12E2,3.83E2,1.199E3,2.4739E4,6.79E2,1.298E3,3.716E3,1.25E2,7.2E1,4.7E1,3.115E3,1.038E3,2.664E3,1.298E3,3.525E3,4.35E2,8.61E2,5.82E2,1.1E1,1.1E1,4.1E1,3.9E1,6.8E1,1.28E2,4.9E1,2.33E2,7.48E2,8.39E2,4.84E2,1.693E3,6.737E3,2.849E3,8.32E2,1.54E2,1.49E2,3.5E1,1.03E2,1.66E2,1.75E2,7.58E2,3.69E2,2.71E2,1.06E2,7.8E1,4.7E2,3.46E2,9.1E1,1.02E2,6.7E1,2E1,4.8E1,3.1E1,4E1,4.6E1,9E0,9.4E1,3.9E1,2.4E1,6.1E1,1.81E2,5.66E2,2.2E1],"tree_param":{"num_deleted":"0","num_feature":"6","num_nodes":"127","size_leaf_vector":"1"}},{"base_weights":[-6.975094E-5,-2.2965711E-1,7.214293E-3,3.867193E-2,-4.9172956E-1,4.1898686E-1,1.206532E-3,-6.890005E-1,1.5801252E-1,-6.5750456E-1,-6.822321E-2,-8.2814705E-1,5.324021E-1,-2.2711211E-1,8.357883E-3,3.2783368E-1,-1.2658095E0,5.7986856E-1,-1.05933726E-1,-5.467806E-1,-1.4936097E0,-1.087757E0,1.641431E-1,-1.3302971E0,9.753863E-1,9.101215E-1,1.594601E-1,4.5466137E-1,-3.7004685E-1,-7.7715546E-2,3.5658564E-2,3.205667E0,3.3493653E-2,-1.3704792E0,1.2702713E0,1.588628E0,2.4397166E-1,3.8166843E-2,-8.6617047E-1,-1.4469274E0,-4.7590128E-1,7.924657E-1,-2.6694524E0,4.1559264E-2,-4.4786744E0,2.4426965E-1,-7.5350034E-1,-1.8048673E0,-9.9573034E-1,5.465274E-1,2.937505E0,-4.368573E-1,1.0364407E0,4.0165496E-1,-5.492458E-1,8.1074345E-1,-1.2851728E0,-9.752414E-1,-2.5927085E-1,8.8867974E-1,-9.9431455E-2,3.8162857E-1,-8.18714E-3,2.0365106E-1,1.1002997E0,-1.5072575E-1,3.611129E-1,-4.707562E-1,1.9754513E-1,3.5599667E-1,8.328963E-1,1.7940734E-2,3.367687E-1,-2.8842267E-2,4.40277E-1,-1.7440456E-1,-6.6406417E-1,7.618586E-2,-5.3550017E-1,-3.1779715E-1,-1.1301074E-1,1.1095347E-1,7.4752355E-1,-1.2618847E0,-2.4329344E-2,-1.9679497E-1,9.5259166E-1,-1.4395709E0,-4.8004534E-2,3.2406019E-3,2.47793E-1,7.799411E-2,-8.018457E-1,3.2495028E-1,-4.9559566E-1,2.9428357E-1,-3.1525614E-3,1.2309391E0,9.093819E-2,5.361271E-3,-3.4058958E-1,2.2222213E-1,4.4149962E-1,-2.3269447E-2,3.690118E-1,1.3806435E-1,-2.9142028E-1,1.5030389E-1,7.395815E-1,9.0675026E-2,-6.3209575E-1,-1.4881764E-1,-5.97767E-1,3.3962554E-1,-1.3040073E-1,-4.06187E-1,3.9403895E-1,-4.9377704E-1,-2.2450153E-2,-1.78324E-2,2.1021132E-1,-2.2310205E-1,5.763356E-3],"categories":[],"categories_nodes":[],